ZJL1	-0.036463	0.34304	-0.32295	0.36496	0.50805	0.15284	0.06968099999999999	0.019178	-0.33906	0.2656	-0.19380999999999998	0.009756200000000001	0.06377200000000001	-0.8252299999999999	-0.10559	0.46817	0.23774	-0.053019000000000004	-0.37554	0.1008	0.41303999999999996	0.29049	-0.26323	0.52612	0.54765	-0.02957	-0.39331	-0.054729999999999994	0.039323000000000004	0.25866	-0.7106600000000001	-0.41567	-0.15406	0.027654	0.2042	0.30711	0.0094847	0.35868	-0.17872000000000002	-0.006640399999999999	-0.11195	0.18117	0.41805	-0.23473000000000002	-0.78635	0.10297	0.07665	0.48386	-0.23640999999999998	0.018722	-0.058083	-0.055259	0.92194	-0.46789	-0.10425	-0.36266	-0.28863	0.15742	0.26904	-0.2771	-0.13652	-0.059753	-0.12334	0.46058999999999994	0.051632000000000004	0.10578	0.36035	-0.15918	0.11595	-0.16624	0.29902	0.30446999999999996	0.33919	-0.26414	-0.3723	-0.0014612	0.032469	-0.21281	0.16495	-0.23565999999999998	0.16694	0.3394	-0.11557	-0.011628	0.71363	-0.65736	-0.22044	-0.086306	0.26369000000000004	-0.29113	0.16724	0.22329000000000002	0.45788999999999996	0.34957	0.20551999999999998	0.31808000000000003	0.77265	-0.23096999999999998	-0.44655	-0.45702	0.033295	-0.19226	0.51878	-0.30058	-0.26861	0.23831	0.40073000000000003	-0.35948	-0.47338	-0.2345	0.002426	0.8163600000000001	-0.58062	0.060610000000000004	-0.075047	-0.16134	0.11438	0.61971	0.024412	0.27103	0.11921	-0.17554	0.39498	1.0321	0.19879000000000002	-0.19702999999999998	0.009964	0.6643	0.17307	-0.31206	-0.27744	0.06915299999999999	0.71836	0.61378	0.13882	0.38737	0.68747	-0.17046	-0.34718000000000004	0.36929	0.63602	0.066673	0.49456999999999995	-0.42299	0.17965	0.12414000000000001	-0.25034	0.073408	0.71337	0.022662	-1.0819	0.11888	0.325	-0.14192000000000002	0.19825	-0.021436	-0.34593	-0.027738	0.15903	-0.050017	-0.15537	0.5216	0.15087	0.19422	-0.015957	0.13887	0.27316999999999997	0.060071000000000006	-0.30931	-0.44378999999999996	0.38679	0.076642	0.38892	0.27163000000000004	0.05837899999999999	-0.65838	-0.020064	-0.09157699999999999	1.1902	-0.16096	0.93768	-0.59814	0.26071	0.0068325	0.26063000000000003	0.051584000000000005	1.0631	0.34317	0.61758	-0.13801	0.01706	-0.20664000000000002	-0.38037	0.23484000000000002	-0.5724	0.5797399999999999	-0.39754	-0.31344	-0.13111	-0.1484	0.20419	0.45825	-0.20478	-0.20679	-0.07943099999999999	0.0042097	0.37599	-0.02727	-0.34908	0.39182	0.08516900000000001	0.34508	0.082561	-0.21619000000000002	-0.26235	0.10570999999999998	-0.44448000000000004	-0.10777	0.39311999999999997	0.064511	0.38866	0.040155	-0.36683000000000004	0.24439	0.0018166	-0.30455	-0.045154	-0.0009547000000000001	0.30976	-0.23976	0.0019152000000000001	-0.37868	0.19908	-0.57616	0.19204000000000002	0.13831	0.004913	-0.2611	-0.055901	-0.33915	-0.13552999999999998	0.26831	-0.0038921	0.039947	-0.12924000000000002	-0.5110600000000001	0.35704	0.36122	0.059542	0.12285	0.34747	-0.25836	-0.07421699999999999	0.52596	0.3909	0.49825	0.16789	0.29443	0.47585	-0.39874	-0.10947	-0.045548000000000005	-0.25964	-0.669	0.3106	-0.16147999999999998	-0.12977	0.57233	-0.074455	0.40216999999999997	-0.0082218	0.05014	0.0032928000000000002	0.28772	0.5647800000000001	-0.31217	0.35368	0.12567	-0.54393	-0.29774	-0.49496	0.74163	-0.0221	-0.40168000000000004	-0.13676	0.5586899999999999	-0.50108	-0.19422	0.13967000000000002	-0.23043000000000002	-0.26905999999999997	-0.010976	0.32879	-0.8431	-0.55595	-0.78513	0.68597	0.11001	0.2239	-0.52913
ZJL10	-0.1564	0.38850999999999997	-0.33158000000000004	-0.0022566	-0.33196	-0.18207	-0.1003	0.42935	-0.13426	0.6268199999999999	-0.18829	-0.017616999999999997	0.066315	-0.0529	0.35882	-0.1976	0.5657	0.39707	-0.53309	0.5280100000000001	0.41803999999999997	0.23678000000000002	0.22315	0.507	-0.25266	-0.41452	-0.025059	0.08547300000000001	-0.54614	-0.15292999999999998	0.036287	-0.13748	-0.1793	-0.5743	0.63346	0.44188	-0.20878000000000002	-0.18516	-0.36101	0.21652	-0.5244300000000001	-0.049027	0.32085	-0.10282000000000001	0.23168000000000002	-0.44618	0.26881	-0.24095	-0.045038999999999996	-0.07571699999999999	0.28164	-0.27468000000000004	-0.50208	0.19827	-0.17055	-0.29868	-0.22415	-0.60368	0.27771	-0.11710999999999999	-0.17174	-0.025098	0.39695	0.0021808000000000005	0.11615999999999999	0.077331	0.20360999999999999	0.24955	0.60992	-0.11498	0.36985	0.83694	0.13094	-0.29935	0.3401	0.37653000000000003	0.0039316	-0.33810999999999997	0.088043	0.14995	0.03758	-0.16908	0.26165	-0.44993999999999995	0.15442999999999998	0.21291999999999997	0.57363	-0.17925	-0.1408	-0.15307	0.06578400000000001	-0.13789	1.2772	-0.35247	-0.13746	0.10902	0.50371	0.23119	-0.092986	0.53515	0.85203	-0.31126	-0.066322	0.056903999999999996	-0.059267999999999994	0.11539	0.047875	0.085224	0.19422999999999999	-0.10198	0.13968	0.89485	-0.8866299999999999	-0.3718	0.21166	-0.20329	-0.44175	-0.025481	0.18787	-0.040022	-0.11183	-0.13307	-0.22525	-0.23113000000000003	0.039191000000000004	0.061114999999999996	-0.41438	0.49637	0.59504	-0.70315	-0.13781	-0.2712	-0.2312	-0.07434500000000001	-0.014387	-0.1617	-0.079814	-0.019107	-0.33353	0.62905	0.073961	0.01459	-0.32078	0.29351	0.036489	-0.48413	0.39000999999999997	0.19609000000000001	-0.22580999999999998	0.050075	-1.0351	0.36383000000000004	0.40321999999999997	-0.084245	-0.1106	-0.54247	0.23292	-0.9189299999999999	0.08670499999999999	-0.55877	-0.19674	0.30255	0.29955	0.19982	-0.36393000000000003	0.2821	-0.021078	-0.19745	0.088465	-0.30179	0.12308	-0.078336	0.36804000000000003	-0.029832	0.30130999999999997	-0.25399	-0.27545	-0.13030999999999998	0.60697	-0.1264	-0.24086	-0.57048	0.090964	0.6258600000000001	-0.5271600000000001	-0.10057	0.6488	0.73777	0.34665	-0.40562	-0.27105	-0.24359	-0.57248	0.021455000000000002	-0.17394	-0.013891999999999998	-0.27681	0.050401999999999995	0.006261500000000001	-0.35985	0.21184	0.0018746	-0.47007	-0.52189	-0.34791	0.54372	-0.07533200000000001	-0.2969	0.7338399999999999	0.41778999999999994	-0.12195	-0.6821699999999999	0.61579	-0.11617000000000001	0.47702	0.55319	0.34206	0.16685999999999998	0.49499	-0.13993	-0.31508	0.46468000000000004	-0.19267	0.42894	0.20326	0.19595	-0.20736	-0.2195	0.22053000000000003	0.0075232	-0.09732	-0.63237	-0.11199	0.34017	0.16834000000000002	-0.61653	0.10363	-0.037626	0.061278	-0.4953	-0.10162	0.039813	-0.86114	-0.13114	-0.096575	-0.25118	0.0011505	0.22530999999999998	0.15538	-0.048857	-0.039532	0.46524	0.10289000000000001	0.10665999999999999	-0.25911	0.50189	0.10339000000000001	0.001068	0.6619	0.079814	-0.19865	0.026007	0.51218	-0.15583	-0.2862	0.38855	0.033027	-0.078797	-0.37221	0.1259	-0.35886	-0.21176	-0.28543	0.15194000000000002	-0.40025	-0.5452199999999999	0.57565	-0.21611999999999998	-0.58409	0.21566999999999997	-0.56658	0.4701	0.040226	0.40949	-0.008576799999999999	0.015437000000000001	-0.5382	0.28205	-0.038867	-0.35249	0.36824	0.14920999999999998	-0.0036735	0.31642	-0.62466	-0.31538	0.19592	-0.03665	0.59825	0.08885
ZJL100	-0.15132	0.18007	0.12005	0.21443	-0.40094	-0.21586999999999998	-0.26811999999999997	0.036317	-0.21247	0.97224	-0.47386999999999996	0.2744	-0.062863	-0.47798	-0.064188	0.26045	0.0031796999999999997	0.33995	-0.28617	0.3	0.48944	-0.072423	-0.032929	-0.13585	-0.16274	0.10675	-0.11985	-0.31396999999999997	0.11110999999999999	-0.053374	-0.43275	-0.44196	-0.18492999999999998	-0.5543399999999999	0.52193	-0.09820599999999999	0.017612	0.35393	0.17256	0.42483999999999994	0.61116	0.20990999999999999	-0.42937	-0.6885100000000001	-0.14232	0.073268	0.70536	-0.30406	0.049977999999999995	0.43651	0.30885	-0.088665	0.33173	0.0063509	0.39419	-0.28661	-0.15689	-0.096562	0.18645	0.43043000000000003	-0.05068	-0.069466	-0.63176	-0.14297	-0.25786	0.33366	-0.237	0.45225	0.045034	0.5584600000000001	0.45338999999999996	0.25581	0.24294000000000002	0.28005	0.48845	0.19261	0.33953	-0.025427	0.3091	-0.07040700000000001	0.45556	0.19503	-0.28148	-0.58378	0.067017	-0.6025	-0.13432	0.55589	-0.62288	-0.1406	0.5720000000000001	-0.2594	0.35115999999999997	-0.19613	0.08705	-0.11924000000000001	0.45786000000000004	0.18975	-0.4849	-0.39303	0.32932	0.27259	0.080732	-0.2352	-0.12647	0.19627999999999998	-0.11363	-0.047093	-0.070444	-0.29512	0.42141000000000006	0.036104000000000004	-0.56638	-0.38663000000000003	0.031456	-0.28215	0.29955	0.026552999999999997	-0.037606	0.41908	-0.017234	-0.22363000000000002	-0.045860000000000005	-0.36296	-0.15184	0.030325	0.12079000000000001	-0.58101	-0.025587000000000002	-0.05574199999999999	0.06961200000000001	0.21771	0.075674	0.056571	0.12278	-0.35522	0.33428	-0.10475	0.48363999999999996	-0.1315	0.45511999999999997	0.69067	-0.18219000000000002	-0.3742	-0.052427999999999995	0.11195999999999999	-0.1945	0.20772	-0.14195	-0.20556999999999997	-0.82362	0.32881	0.40903	0.49463999999999997	-0.45266999999999996	-0.21645999999999999	0.48413	-0.11035	-0.4926	0.27339	0.032733	0.37459000000000003	0.039776	0.36064	-0.048052	-0.062873	-0.23259000000000002	0.4828	0.096341	-0.093727	-0.07737899999999999	-0.40258	0.40655	0.059493	-0.49526000000000003	-0.12579	-0.1333	0.11143	0.08492999999999999	-0.99674	0.30085	-0.47242	0.028373000000000002	-0.48498	0.097834	-0.30854000000000004	-0.031835	0.22105	0.26185	-0.20538	-0.19864	-0.1013	-0.41635	0.24846999999999997	-0.028719	0.05664500000000001	-0.17638	0.07181599999999999	0.14547000000000002	0.39593	-0.12585	0.48538000000000003	-0.23006999999999997	-0.22660999999999998	0.021376	0.59387	0.11295	-0.11554	-0.033201999999999995	-0.34847	0.2781	0.10298	0.083383	0.42388000000000003	0.26514	-0.5593100000000001	0.07861699999999999	-0.12168	-0.58173	0.3535	-0.34954	0.057136	-0.26111	-0.126	-0.3883	0.5794199999999999	-0.14274	0.37187	-0.11987	0.032135000000000004	0.0722	-0.12778	-0.45252	0.23069	0.27082	0.19121	0.020429	-0.079818	-0.10421	-0.4705	0.29849000000000003	-0.3947	-0.047278	-0.57496	-0.24239000000000002	-0.27073	0.081686	0.65218	0.12815	-0.31361999999999995	0.18825	-0.22628	-0.16841	-0.42896999999999996	-0.20453	0.17847000000000002	-0.042231	0.30724	-0.34119	0.57057	0.18455	0.062902	-0.44232	-0.10629000000000001	-0.016323	-0.16332	-0.1249	-0.083587	-0.24313	-0.45223	0.013403	-0.14886	0.4988	-0.049101	0.045709	-0.27337	0.51627	-0.57606	-0.8719	-0.52636	0.46038	-0.065544	-0.25018	-0.5546399999999999	-0.23383	0.30284	0.78435	0.10167000000000001	0.051599	0.14834	-0.01314	0.07719	0.39476999999999995	0.004202399999999999	-0.5393899999999999	-0.72008	0.5331	0.26618	0.36038000000000003	-0.045467
ZJL101	-0.3159	0.15689	-0.037299	-0.23948000000000003	-0.75242	0.22266999999999998	0.40145	0.29315	-0.012168	0.64127	-0.47251000000000004	0.07822899999999999	0.12993	0.29935	-0.48241999999999996	0.63836	0.35244000000000003	-0.20567	-0.26893	-0.42217	0.060929	-0.3976	-1.1187	0.27421999999999996	0.79301	-0.17001	-0.35613	-0.40413000000000004	-0.0012687000000000002	0.4851	0.24269000000000002	-0.20253	0.17175	-0.013628	0.35822	0.16024000000000002	-0.72029	-0.03581	-0.39773000000000003	0.78468	-0.10012	-0.30661	-0.54867	-0.056699	0.27771999999999997	0.21911999999999998	0.11494000000000001	-0.20215	0.84865	0.21834	0.061515	-0.18026	0.38168	0.1437	-0.20983000000000002	-0.42412	-0.70687	0.36007	0.33734000000000003	0.17131	0.5523899999999999	-0.11890999999999999	-0.29209	0.10939000000000002	0.050868000000000003	0.82357	0.076973	0.102	-0.27341	-0.010086	0.3903	-0.08315299999999999	-0.009637799999999998	-0.18463	-0.034451	0.11988	-0.041221	-0.57112	0.14155	0.044625	0.8945799999999999	0.039744	-0.076159	0.082842	-0.28743	-0.3971	0.32827	0.16457	-0.27224	0.58076	0.0020978000000000004	0.13796	0.013816	-0.40207	-0.93595	-0.53166	0.024604	0.16219	0.12150999999999999	0.62066	-0.09447	-0.1236	-0.44193999999999994	-0.6083	0.23239	0.18992	-0.28038	0.13449	0.096913	-0.55079	-0.0030543000000000002	0.4369	-0.27393	0.14993	-0.11082	0.16706	-0.35181999999999997	0.26513000000000003	0.070934	0.46937	0.3233	0.14882	-0.14962	0.027442	0.0078805	-0.54498	-0.54569	-0.78179	-0.51853	0.098847	0.16296	-0.28028000000000003	-0.4669	-0.050496	0.45675	-0.41323000000000004	-0.23403000000000002	0.21959	0.55743	-0.2254	0.36835999999999997	0.55501	-0.40902	-0.24815	-0.25636	0.11947	-0.18914	0.41241000000000005	0.38929	-0.42151000000000005	-1.4228	0.55687	0.34142	0.13837	-0.66014	-0.029195999999999996	0.43194	-0.3465	-0.32358000000000003	0.079394	0.52912	-0.1722	0.025606	-0.058537	-0.22271	0.2067	-0.24720999999999999	-0.09435	0.67632	-0.58486	-0.3657	0.095764	0.27569	-0.6585	-0.22946999999999998	-0.88223	-0.40452	0.76788	-0.11268	-0.67273	0.092548	-0.45038	0.7726	-0.5041	0.32334	-0.19174000000000002	0.5256	0.5250600000000001	0.23333	-0.097567	0.13877	0.93445	0.12882000000000002	0.3995	-0.12019	-0.067348	0.35241999999999996	-0.13535999999999998	-0.20309000000000002	0.10037	-0.16182	0.94845	0.33842	-0.625	-0.72792	-0.10029	-0.54215	0.32933	0.7516	-0.26847	-0.0053917	0.51551	0.16007000000000002	0.5030899999999999	-0.15925999999999998	0.39358000000000004	-0.7159300000000001	-0.45829	-0.10493	0.35708	-0.59988	0.7128899999999999	0.6060399999999999	0.63522	-0.037281	-0.14574	0.38906	0.66681	-0.016638999999999998	0.17932	-0.47136000000000006	-0.14829	-0.28974	0.19007000000000002	0.65525	-0.20947	-0.35143	0.40537	0.20628000000000002	-0.8402	-0.053928	-0.20756	-0.5411699999999999	0.075151	-0.43588999999999994	-0.35641999999999996	-0.45158000000000004	0.39075	-0.5454	-0.40396	-0.027594	-0.030045999999999996	0.02161	-0.11689000000000001	0.009274600000000001	0.44761999999999996	-0.7046	-0.2261	-0.42908999999999997	-0.37871	-0.064066	0.23285	0.21749000000000002	0.37474	0.23894	0.28867	0.034589999999999996	0.0066884	-0.24756999999999998	-0.081979	0.026237	0.1103	0.053375	0.12495999999999999	-0.26356999999999997	-0.52003	0.32828	-0.38871	-0.37158	0.1853	-0.0075711	-0.16588	-0.057011	-0.34445	-0.13005999999999998	0.18492999999999998	0.0056838999999999995	-0.12274000000000002	-0.8501299999999999	-0.55491	0.24971	0.16568	-0.30316	-0.54907	0.30145	-0.11320999999999999	-0.27693	-0.26921	0.44985	-0.48578999999999994
ZJL102	0.06352200000000001	-0.17278	0.12012	-0.1523	-0.19601	0.3868	-0.14845	0.077092	0.30775	0.63808	-0.029060000000000002	0.29239	0.80769	-0.62675	-0.20426	0.69195	-0.076802	0.23395	-0.71759	-0.6653100000000001	-0.20279	0.037668	0.1744	0.24125	0.15387	0.086207	-0.36878	0.46942	-0.35216	-0.14368	0.025176	-0.23890999999999998	0.16676	0.32961	0.60145	0.0065457	-0.36644	-0.26721	-0.024419999999999997	0.5461600000000001	-0.24966	0.25014000000000003	-0.057661000000000004	-0.61573	0.1809	0.31675	0.40025	0.42498	0.31664000000000003	-0.083508	-0.66673	-0.39469	-0.05775	-0.12772999999999998	-0.80505	0.022716999999999998	-0.26782	0.48221	-0.2229	0.1414	0.10528	0.53242	0.12764	0.42735	-0.28281	-0.46707	0.40314	0.55947	0.47412	-0.080785	0.082714	0.32973	-0.37248000000000003	0.032275	-0.095693	0.2717	0.33071	-0.44976000000000005	0.38094	-0.11254000000000002	-0.084878	-0.38279	-0.11168	-0.08488	0.29980999999999997	0.1613	-0.26478	-0.060834000000000006	0.21654	0.19102	0.6665399999999999	-0.25299	0.49258	0.24168	-0.45682	-0.085436	-0.030802	0.15322	-0.58902	0.34106	0.13987	0.17768	0.095677	0.3551	0.27689	-0.2548	-0.14095	0.077921	-0.25554	0.24620999999999998	-0.54582	0.6272800000000001	-0.19602	0.037099	-0.13273	-0.1799	0.12736	0.10275	0.07273400000000001	-0.34186	0.28852	-0.024529	0.94676	0.74566	0.053778	-0.5464	0.077142	-0.31547	0.25495	-0.15969	-0.00829	0.11507	0.036957	-0.24716999999999997	0.34662	0.068638	-0.29615	-0.19987	-0.26466999999999996	-0.16917000000000001	-0.54315	0.032658	-0.25474	-0.6541100000000001	-0.10664000000000001	0.078612	-0.079593	-0.007581399999999999	0.15279	-0.10159	-0.58357	0.010778	0.54181	0.34154	-0.11575	0.19866	-0.1561	0.10643	0.23521	0.7018300000000001	0.36082	-0.010459999999999999	-0.20723000000000003	-0.12872999999999998	-0.0025545999999999998	-0.20027999999999999	-0.2708	0.28817	0.3513	-0.52007	-0.49941	-0.4324	0.8086	-0.9212799999999999	0.34312	-0.17659	0.045452	-0.22548	0.25754	-0.34776999999999997	-0.10955	0.14639000000000002	0.42808999999999997	-0.074034	-0.031464	-0.001277	0.72097	0.2738	0.010154	0.24278000000000002	0.22801999999999997	-0.42094	0.49211000000000005	0.11689000000000001	-0.059352999999999996	0.43241999999999997	-0.29156	0.082974	-0.38483	0.010467	0.31861	0.15702	-0.11041	0.05475	-0.048149000000000004	0.20681	0.079528	-0.25651999999999997	-0.045979	0.13549	0.17024	-0.062217999999999996	-0.23574	-0.34291	-0.40446	0.32403000000000004	-0.26708000000000004	0.20711	-0.36935	0.14325	-0.1194	-0.12712	-0.052377	0.15928	-0.42055	-0.09688300000000001	0.084952	0.74048	-0.18912	-0.58405	0.24131	0.14092000000000002	-0.42386999999999997	0.05230599999999999	-0.29975999999999997	-0.043449	-0.62483	-0.64023	0.46523000000000003	0.091875	0.6527	-0.11954000000000001	-0.50113	-0.44482	0.069702	-0.14342	0.25832	0.85408	-0.34262	0.13835	-0.39581	-0.060318	0.10303	-0.6643899999999999	0.27213000000000004	0.20489000000000002	-0.24606	-0.55906	-0.35423000000000004	-0.6883	0.39261	0.18094000000000002	-0.037694	-0.8145	0.23415	-0.49933999999999995	0.07191	0.079773	0.11947999999999999	-0.42767	0.015016	-0.02083	-0.16858	-0.70322	-0.22271999999999997	-0.15782000000000002	-0.08756900000000001	-0.0035884	-0.57618	0.0014133	0.21434	-0.37474	-0.24618	-0.29912	0.018131	0.046981999999999996	0.289	0.41331	0.23869	0.085898	0.9673799999999999	-0.22541	-0.44311999999999996	-0.14784	-0.31071	-0.48362	0.53874	-0.090213	0.1121	-0.024741
ZJL103	-0.06857	0.22303	0.02907	-0.59109	0.23779	0.7824800000000001	0.57898	-0.23906999999999998	0.39075	0.050025	0.065589	-0.04502	0.064188	0.084384	0.061674	-0.16738	-0.098549	0.22482	0.057545000000000006	0.36124	-0.7619100000000001	0.64808	-0.18233	0.29197	-0.09755499999999999	-0.5599	-0.26450999999999997	-0.14371	-0.25133	0.14371	0.6380399999999999	0.43543999999999994	-0.26056	0.44968	0.22426	0.10467	-0.11366	-0.45413000000000003	-0.22956	-0.23599	-0.47562	0.29667	-0.41433000000000003	0.37535999999999997	-0.12796	-0.11157	0.62448	0.5975199999999999	0.70093	0.10684	-0.40936	0.08558400000000001	-0.1078	-0.045119	-0.08632100000000001	0.16638	-0.06214600000000001	1.0006	0.4944	0.14482	0.017206	-0.44841000000000003	0.37246999999999997	-0.23005	-0.027191000000000003	-0.0056367	-0.32365	0.25511	-0.29348	-0.33784000000000003	0.060196000000000006	-0.25033	-0.028020999999999997	0.0073306	-0.30572	-0.1527	0.44832	-0.17227	0.41712	-0.34207	0.41335	0.37113	-0.050724	0.24693	0.6151399999999999	-0.11977	0.27138	0.07392	0.11632	-0.15792	0.7206899999999999	-0.50512	0.65184	0.27910999999999997	-0.27852	0.022116	0.79435	-0.71316	-0.33497	-0.074692	-0.079162	0.19333	-0.49761000000000005	-0.26734	0.13652999999999998	0.082197	-0.2119	-0.58098	-0.19585999999999998	0.019816999999999998	-0.32585	0.091603	0.10959	-0.25529	-0.56745	-0.29143	-0.8034399999999999	0.36222	-0.33185	-0.27048	-0.2937	0.29579	0.24261	-0.23224	0.015338	-0.64384	0.2473	-0.40679	-0.8828799999999999	-0.19976	0.4996	0.2924	0.31443000000000004	0.38406	-0.017903	-0.032748	0.15432	-0.27675	0.047737	-0.30856999999999996	-0.018296	-0.33109	0.028276	0.30565	0.44335	0.064625	-0.12835	0.36723	0.17504	-0.045481	0.026392000000000002	0.36038000000000003	0.041533999999999995	-0.040423	0.012797	-0.40010999999999997	-0.4149	-0.3702	-0.098313	-0.012837000000000001	0.09335399999999999	0.008583	0.014866999999999998	0.029993000000000002	0.22887	0.020538	0.40749	-0.15329	-0.16338	0.19307	-0.24093	0.15995	0.27089	-0.012598999999999999	-0.085127	-0.011139	0.17367	-0.0063763000000000005	0.086799	-0.50744	-0.23701999999999998	0.66593	0.26589	-0.021929	-0.19316	-0.43861000000000006	0.20826	-0.10400999999999999	0.3967	-0.19865	0.27947	0.25897	-0.25545999999999996	-0.019138	-0.41139	0.38975	-0.2668	-0.11124	-0.33848	0.2818	0.99313	-0.24148000000000003	0.08845	0.0075559	0.16838	-0.36587	-0.36774	-0.14228	-0.66218	0.43218	0.45571000000000006	0.7378399999999999	0.048324	-1.0768	0.026382	0.32044	-0.20488	-0.28369	-0.11732999999999999	0.32968000000000003	-0.22309	0.3602	-0.24765	-0.37690999999999997	-0.036871	-0.2129	-0.14297	0.08543400000000001	0.29298	-0.30002	-0.21984	-0.028738	-0.33810999999999997	0.031752999999999997	-0.1271	0.65765	-0.3465	-0.15897	0.088474	-0.3849	-0.32314	-0.21161	-0.40562	-0.15255	-0.50749	-0.25632	0.20048	-0.33326	-0.13739	0.44773999999999997	0.6462899999999999	-0.8842200000000001	0.14357	-0.20043	-0.13260999999999998	-0.42005	0.11366	-0.13397	0.24944000000000002	-0.2296	0.31663	0.22946	0.6772699999999999	-0.624	-0.024662	-0.048811	0.16036	0.76527	0.47812	0.092379	0.21111	-0.5846	0.010709999999999999	-0.47223999999999994	-0.20306	0.145	-0.77686	0.28042	-0.33771	0.2984	0.039189999999999996	0.46575	0.01591	-0.46688999999999997	0.060610000000000004	-0.1166	-0.06562899999999999	-0.14265	-0.5915	0.015725	-0.19549	0.35538000000000003	0.19971	0.53984	0.54311	-0.6994199999999999	0.48458999999999997	0.14732	-0.40988	-0.056326
ZJL104	0.46443	0.3773	-0.21459	-0.50768	-0.24575999999999998	0.08134	0.10145	0.25155	-0.36152	-1.6030000000000002	0.28219	0.36653	0.44611000000000006	0.2795	0.047722	0.30086999999999997	-0.16226	-0.026055000000000002	-0.26815	-0.46282	0.25012	0.6038899999999999	0.15111	-0.062823	-0.096755	-0.30548000000000003	-0.11375999999999999	0.53914	0.10966	-0.70618	-0.6631600000000001	0.43559	-0.048631	0.27755	-0.48685	0.11938	-0.54538	-0.29563	0.03447	0.53187	-0.001588	0.41691999999999996	-0.20742	-0.037833	0.43333	0.047521	0.8350700000000001	-0.065088	-0.29974	0.004713899999999999	0.12339000000000001	-0.5066	0.2587	0.21264	0.19132000000000002	0.54204	-0.11385	-0.42383999999999994	-0.27808	-0.15105	-0.6210399999999999	0.27678	-0.054974	0.018479	-0.11744	0.33029000000000003	-0.35251	-0.21953000000000003	0.055139999999999995	0.16971	-0.36445	0.36383000000000004	0.20496	0.6651199999999999	-0.2254	-0.30346999999999996	-0.52782	-0.66115	0.11774000000000001	-0.14438	0.33886	0.2297	0.63072	0.7692899999999999	0.02536	-0.13685	0.084254	0.32036	-0.10430999999999999	0.7672	1.0674	0.42885	0.03032	-0.63375	0.70705	-0.17670999999999998	-0.1077	-0.31877	0.06378099999999999	-0.57507	-0.40656	0.55837	0.7237600000000001	0.2645	0.20313	-0.43948999999999994	0.53094	0.07549199999999999	-0.26950999999999997	-0.4277	-0.13859000000000002	0.28341	0.13153	-0.32371	0.22816	0.43016000000000004	-0.015529	0.13276	0.048239	-0.038536	0.013812999999999999	-0.24566999999999997	0.4658	-0.61963	-0.39568000000000003	-0.21261	0.11120999999999999	-0.19519	0.32773	-0.25276	0.8751200000000001	0.4986	0.25747	0.46458999999999995	-0.097237	0.42508999999999997	0.0080811	-0.79669	0.19793	-0.060157	0.06047999999999999	0.20092000000000002	0.46373000000000003	0.29617	-0.31811999999999996	0.12548	-0.17667	-0.29347	-0.59183	0.43081	1.0006	0.46858	0.11257	-0.56533	0.5472899999999999	-0.43423999999999996	0.22738000000000003	0.21527	0.087824	-0.073562	0.5316	-0.36782	-0.42531	-0.066561	0.34648	-0.13677	-0.26654	0.09905599999999999	-0.052121	-0.6140899999999999	-0.0036171	0.32633	0.3905	0.029416	-0.1119	-0.2118	-0.15688	-0.29308	0.23114	0.13873	0.66445	-0.26318	-0.25518	0.29499000000000003	0.7013199999999999	-0.3239	0.42108999999999996	0.27316	0.15020999999999998	0.058074	0.24201	-0.6219399999999999	-0.40831999999999996	0.038272	-0.35372	0.013934	-0.25013	0.42916000000000004	-0.039463	-0.29794	1.0178	-0.41685	0.15442	0.19598	0.44718	-0.25764000000000004	0.13438	-0.084223	-0.14142000000000002	-0.16000999999999999	-0.32541	-0.19588	0.13934000000000002	-0.44924	0.20826999999999998	-0.15747	0.035537	0.37096999999999997	-0.15336	0.20401	0.35980999999999996	-0.26311	-0.27436	-0.41229	0.45533	0.77527	0.29339	-0.27392	0.45037	0.060015	0.081354	-0.53969	0.31872	-0.082837	0.77918	0.094676	0.75256	0.33376999999999996	-0.5534899999999999	-0.15661	0.20790999999999998	-0.13498	0.4756	0.1218	-0.16496	-0.65669	0.52394	-0.43666000000000005	-0.0087235	0.52565	-0.12011	-0.21406	-0.15253	-0.22775	0.59701	-0.6450899999999999	-0.445	0.40936999999999996	0.11943	0.034467000000000005	-0.32471	-0.47915	-0.25264000000000003	0.26818000000000003	0.059601	-0.51842	0.33124000000000003	-0.29623	-0.28343	-0.41471	-0.04505	-0.0017776	-0.37654	-0.023911	0.55602	0.2044	-2.2391	0.14986	-0.098345	0.18714	-0.19265	-0.0061056999999999995	0.39897	-0.22391999999999998	-0.42168	1.0727	0.29344000000000003	-0.47384	0.30169	-0.15307	0.19966	-0.40979	-0.10325	-0.04361	0.17564000000000002	0.65709	-0.09986	0.49107	0.28215	0.34554
ZJL105	0.91643	0.095422	0.36995	-0.9305899999999999	-0.033587	-0.17703	-0.43537	0.75044	-0.19396	-1.1381	0.20302	0.51764	-0.25437	-0.044942	-0.70092	-0.047713	0.22721999999999998	0.78965	0.33588	-0.10106	0.080951	-0.36996999999999997	-0.12830999999999998	0.040014999999999995	0.46547	-0.59702	0.44448999999999994	0.37727	0.074013	-1.0752	0.36855	0.24863000000000002	0.24619000000000002	-0.6492899999999999	-0.86667	0.6724399999999999	0.2591	0.46948	-0.19987	0.96831	0.007200399999999999	-0.32742	0.67779	0.53458	0.63786	0.25154	0.4968	0.473	0.27921	-0.15439	0.052756	0.28968	-0.13592	-0.57617	-0.28963	0.78846	-0.05296	-0.014583	1.0167	-0.25429	0.17182999999999998	0.33065	0.21454	-0.059208000000000004	0.29695	0.037905	0.25721	0.7907	0.36109	0.30746	0.72075	-0.24591999999999997	0.70514	-0.27166	-0.96188	0.29665	0.08687	-0.23895999999999998	-0.34546	-0.13963	-0.06274400000000001	-0.1584	-0.14288	-0.036814	0.15043	-0.27889	-0.012412000000000001	0.5635600000000001	-0.5110600000000001	-0.39345	-0.66245	0.14637	0.020623	0.14121	-0.37034	-0.13019	0.012131999999999999	1.0251	-0.48796000000000006	0.38288	-0.42651999999999995	-0.39971	0.29548	-0.66682	0.47676999999999997	0.68406	0.095904	-0.39718000000000003	-0.15387	0.28865	-0.067299	-0.07191900000000001	0.0047818999999999995	-0.018146000000000002	-0.42336	-0.24228000000000002	-1.0961	0.57311	0.01761	-0.62731	-0.0045839	0.024428000000000002	0.41421	-0.2378	-0.23945999999999998	0.17351	-0.19605	1.192	-1.0943	0.097509	-1.1333	0.30985	0.28969	1.0358	-0.09310399999999999	-0.36943000000000004	-0.27421999999999996	0.84259	-0.7596	-0.00076538	0.52173	-0.046485000000000005	-0.90764	-0.042699	-0.68747	0.41713999999999996	0.37781	1.1384	-0.30156	0.044962	0.49463	0.27009	0.29225999999999996	-0.026646	-0.1353	-0.0602	-0.18918	0.28809	-0.36411	0.34728000000000003	-0.19562000000000002	0.88315	-0.31268	-0.53597	-0.29986	-0.7006100000000001	0.04325	-0.17925	-0.17634	-0.16913	-0.28175	-0.44642	-0.19294	-0.47463999999999995	0.28083	-0.09170199999999999	0.40305	-0.39050999999999997	0.18442	-0.28342	0.044137	0.40673000000000004	0.76059	0.43733999999999995	-0.15779	0.23201999999999998	-0.076813	0.21206	-0.13069	0.17218	0.18262	0.68817	-0.42838999999999994	0.12947	-0.46457	-0.10061	0.3028	0.41367	-0.83949	0.22166999999999998	0.59236	0.3071	0.25813	0.20377	-0.26342	0.59718	0.097041	-0.60251	0.37413	0.12212	0.33352	-0.65862	-0.40941	0.6502899999999999	-0.10703	-0.12454000000000001	0.21669000000000002	-1.031	-0.34447	0.21674000000000002	0.052457000000000004	0.093191	-0.011640000000000001	-0.14937999999999999	-0.23306999999999997	-0.27681999999999995	-0.065265	0.06475	0.18665	-0.29759	0.7609100000000001	0.081813	-0.21932	0.51679	0.45037	-0.030904	0.030701	0.48312	-0.5240100000000001	-0.63047	-0.12294000000000001	0.063861	-0.42923999999999995	0.32131	-0.025807999999999998	-0.22239	0.72292	-0.42231	0.14155	-0.5727399999999999	0.11264	-0.58278	0.46906000000000003	0.74884	-0.16649	-0.11878	0.37677	0.10604000000000001	-0.18957000000000002	0.27552	-0.31111	-0.4562	-0.30585	0.76325	0.86716	0.30044	-0.71232	0.47202	-0.23947	0.031935000000000005	-0.20561	-0.1628	0.5720000000000001	0.9613799999999999	0.4456	-0.77989	-1.0996	-0.0044853	-0.9240799999999999	0.24358000000000002	0.37718	-0.29253	-0.9879600000000001	-0.42553	-0.33284	0.66343	0.2324	0.40185	-0.67594	0.58997	0.2114	0.21054	-0.10855	-0.069399	0.042381	0.04506	-0.17009000000000002	-0.35759	-0.5606800000000001	0.15686
ZJL106	0.033257999999999996	-0.43096	-0.057869000000000004	-0.4051	-0.0048208999999999995	-0.35262	-0.37576	-0.024196000000000002	0.27134	-1.044	0.041621	-0.080501	-0.17119	0.33866	0.067598	0.2361	0.2072	0.11742000000000001	0.02793	-0.64869	-0.6463800000000001	-0.40874	0.61836	0.65263	0.091687	-0.65062	0.50627	0.58326	-0.22704000000000002	-0.44451999999999997	0.43415	-0.074509	-0.32175	0.34691	0.056705	0.5999	0.18929	0.093928	-0.66894	0.50048	-0.28554	-0.92748	0.078794	-0.042132	0.7348899999999999	-0.20795999999999998	0.12732000000000002	-0.14063	-0.1738	-0.094068	-0.48621000000000003	-0.11345	0.5636	-0.05898099999999999	-0.21907	0.17524	0.0044797	-0.44298999999999994	0.36776	0.14265	0.35015	0.1883	0.0021281	-0.0082477	0.32422	-0.5783	-0.39751	0.21793	0.27421999999999996	0.029939999999999998	0.38415	-0.14993	0.18224	-0.43456000000000006	-0.39703	0.26508000000000004	-0.024196000000000002	0.23746	-0.15455	-0.44258000000000003	-0.024225	0.35267	0.072055	-0.3278	0.36085	-0.10343	-0.13367	-0.18573	-0.62927	0.05018	0.068539	-0.24574000000000001	0.13681	0.077165	-0.6251399999999999	-0.00067744	0.13089	0.78084	0.22333000000000003	0.6030300000000001	0.34009	0.24444000000000002	-0.1437	0.10514000000000001	0.096916	-0.10392	0.18825999999999998	-0.00047336	-0.19232	0.98136	0.5808	0.79367	-0.14301	-0.07557799999999999	-0.30111	0.41788000000000003	-0.65203	0.47015	0.25540999999999997	-0.5964	-0.39029	0.10637	0.87716	0.27089	-0.061702	-0.21243	0.27584000000000003	0.65904	0.18556	0.40603	0.30904	0.070378	-0.70211	0.91661	0.073784	-0.08189600000000001	-0.26199	0.28981	0.31539	0.48425	-0.043838	0.18091	-0.39834	-0.057047	0.20235	0.39478	-0.069515	0.11420999999999999	0.38515	0.27382	-0.070725	0.60265	-0.8229299999999999	-0.7608600000000001	-0.051093	0.081591	-0.26129	-0.3374	0.16258	0.57301	0.18702	0.049139999999999996	-0.48928	-0.12185	0.11753	-0.19665	0.15842	0.42115	0.5223800000000001	-0.37151	-0.11433	-0.27559	-0.12233	0.37311	0.30515	0.019198	0.35389	-0.24319000000000002	-0.60998	-1.2091	0.26655	0.2721	0.38498000000000004	-0.11009000000000001	0.37809	-0.02607	0.85769	0.10325	-0.5168	-0.09375900000000001	0.054060000000000004	0.45771000000000006	-0.22436	-0.11529	-0.030691000000000003	-0.42908	-0.23431	0.29291999999999996	-0.32908000000000004	-0.099491	0.79404	-0.28185	0.30518	0.20051	0.48026	-0.21886999999999998	0.30484	0.1999	-0.32947	-0.20559000000000002	0.53393	-0.24369000000000002	-0.18614	0.11889000000000001	0.37784	-0.45443999999999996	0.7459399999999999	-0.47566	0.22109	-0.5848300000000001	-0.048875999999999996	0.082401	0.28836	-0.23331	0.14142000000000002	-0.21155	0.18242	-0.3193	0.27111	-0.24836999999999998	0.6312300000000001	0.19477	-0.43663	0.43436	0.12604	0.086425	0.41218999999999995	-0.40386	-0.38645999999999997	0.63508	0.50137	-0.15086	-0.33776999999999996	0.15017	-0.8496100000000001	0.49418999999999996	-0.078985	-0.42761000000000005	0.047857	-1.1917	-0.3315	0.24169000000000002	0.29558	-0.67576	0.77889	0.19178	0.049075	0.22618000000000002	-0.22225	-0.1647	-0.26056	-0.11767999999999999	0.45974	0.33881999999999995	-0.3517	0.22335	-0.27576999999999996	-0.17744000000000001	-0.37925	-0.25759	0.046144	-0.50231	0.17795999999999998	-0.37442	-0.4879	-0.058662	-0.77804	-0.43128999999999995	-0.68925	0.0040151	0.47131999999999996	0.43168999999999996	0.073517	-0.15229	-0.81243	0.7384	0.14448	0.38852	0.3379	-0.20303	0.28356	-0.13235999999999998	-0.25251999999999997	0.54535	0.19644	-0.37775	0.36085	0.46415	0.70419	0.59202
ZJL107	0.28328000000000003	0.0095288	-0.11154000000000001	-0.42621000000000003	0.34462	0.10418	-0.46421999999999997	0.45948999999999995	-0.36721	-0.9308700000000001	0.0090131	-0.031863	-0.23624	-0.16605	-0.30253	0.12562	0.11778	0.32328	-0.35488000000000003	-0.13021	0.29039	-0.39982	0.09665499999999999	0.29411	0.24073000000000003	-0.16466	-0.1484	-0.28913	0.20554	0.77251	0.13677	0.21945	-0.033575	-0.0038719	-0.17357	0.13906	-0.47038	0.12217	-0.14484	0.1217	-0.49101999999999996	-0.056084	0.2043	0.021834	0.11204000000000001	-0.38105	0.22608000000000003	-0.25947	-0.059302	0.32276	0.33236	-0.017418	0.36256	0.33575	-0.67652	-0.061480999999999994	-0.17912999999999998	-0.097985	0.70813	0.12805999999999998	0.13263	0.23678000000000002	-0.47958999999999996	0.071997	-0.17885	-0.66378	-0.52428	-0.37143000000000004	0.9686600000000001	-0.14039000000000001	-0.11387	0.58959	0.36015	-0.11880999999999999	0.60036	-0.40803	0.34656	-0.41917	0.11299000000000001	-0.5330600000000001	0.17615999999999998	-0.46774	0.17515	-0.19956	-0.26514	0.10335	0.19758	0.13907	-0.5705600000000001	-0.06517	-0.39419	-0.18855999999999998	-0.051382000000000004	0.50827	0.14007999999999998	0.11392000000000001	0.17559	0.11017	0.5997399999999999	-0.82755	0.36575	0.098248	-0.38452	-0.0658	1.0265	0.044076	0.26555	0.36117	-0.32855999999999996	0.43975	-0.12708	0.59527	-0.47461000000000003	0.15075999999999998	0.48475	-0.091198	0.33878	0.34861	-0.055419	-0.27321	0.34292	0.34437	-0.11967	0.33073	-0.38947	-0.26947	0.058159	-0.039255	0.056275	-0.27805	-0.07455099999999999	0.21224	-0.0039232	0.2073	0.28481	-0.40343	-0.45686000000000004	-0.20761999999999997	0.15939	0.5978899999999999	0.6764899999999999	-0.46381000000000006	-0.028667	-0.58838	0.41928000000000004	-0.36438000000000004	-0.11422	-0.28433	-0.20276	-0.25793	-0.12753	0.24133000000000002	-0.21169000000000002	-0.71696	0.31492	-0.23976999999999998	0.040275	-0.29641	0.24356999999999998	0.15752	0.73355	-0.7498600000000001	0.1622	-0.023871	0.4778	-0.25286	-0.18243	0.3727	0.14426	-0.12287999999999999	0.17115	0.038123000000000004	0.35168	-0.16041	-0.3369	-0.30444	0.27108000000000004	0.80314	0.0089085	-0.16773	0.30839	0.55185	0.049493	0.19669	0.098715	0.018002	0.60158	-0.11911	-0.056001	-0.19855	0.34407	0.34353	-0.018778	0.38989	0.10570999999999998	-0.10994000000000001	-0.39308000000000004	0.095367	0.091616	0.074155	0.84845	0.44646	0.28483	-0.33125	0.099285	-0.0047207	0.15549000000000002	-0.20393	-0.80812	-0.0025805	0.0097321	0.33899	-0.062113	-0.24297	0.33405	-0.50538	0.91756	-0.49401000000000006	-0.1155	0.14024	-0.46435	0.43742	0.9778399999999999	-0.26232	0.29081	-0.35131999999999997	-0.048934	-0.20475	-0.14219	-0.48713999999999996	0.047403	0.13294	-0.40193	-0.53942	-0.33471999999999996	-0.19091	0.11037999999999999	-0.31443000000000004	0.32389	0.4997	0.26273	0.071667	-0.30594	0.31893	-0.75427	-0.14392	0.37273	-0.13705	-0.37488	-0.29425999999999997	0.08391699999999999	-0.23403000000000002	0.32542	0.031654	0.30956	0.34633	0.20335	0.17354	-0.34635	-0.29122	-0.068801	-0.1092	0.37796	0.3035	-0.33035	0.057222	0.16521	0.04077	-0.51532	0.43678	0.56228	0.59851	0.44709	-0.26742	-0.38394	-0.46108000000000005	-0.84021	-0.31955	-0.34606	-0.20573000000000002	0.061111	-0.040793	-0.29346	0.5063	0.47146000000000005	0.54267	-0.67782	0.27011999999999997	0.33321	-0.16821	-0.2001	0.069649	-0.10471	0.47386000000000006	-0.5082899999999999	-0.63518	0.49448000000000003	0.8395600000000001	0.11698	0.1585
ZJL108	0.43715	-0.20469	0.21794000000000002	0.04717	1.4316e-05	0.091878	0.31661999999999996	-0.41936	-0.385	0.71013	-0.13691	0.94326	0.7205	-0.49471000000000004	-0.62065	-0.21564	-0.44541000000000003	0.43446999999999997	0.5098199999999999	0.03235	0.39425	0.35695	-0.3158	0.47558999999999996	-0.058647000000000005	-0.4028	-0.48708	0.39561999999999997	0.25516	-0.7560100000000001	-0.22821	-0.36246	0.29438000000000003	-0.20107	0.53835	0.09476	-0.68596	0.7238600000000001	-0.03898	0.21529	0.33119	0.65174	0.27885	-0.32708000000000004	0.2485	0.36385	0.48091999999999996	-0.15177000000000002	0.013893	0.045854	0.1275	-0.091847	0.060703999999999994	0.20034000000000002	0.15911	-0.10102	0.048760000000000005	-0.31028	0.58198	0.061270000000000005	-0.17737	0.24806	-0.33938	0.10828	0.47147	0.221	-0.20034000000000002	0.38716999999999996	-0.11395999999999999	0.31203000000000003	0.1725	0.48100000000000004	0.1257	-0.034333999999999996	0.28428000000000003	-0.25093000000000004	-0.62846	-0.3074	0.14021	-0.18391	0.64747	0.62993	-0.14976	-0.14021	-0.23149	-0.13992000000000002	0.080596	-0.29636	0.68088	0.43131	0.33997	0.17403	0.6178100000000001	-0.06956	0.42183999999999994	0.088502	0.55237	-0.1243	-0.22399000000000002	-0.13404000000000002	-0.31334	-0.10106	0.5060600000000001	-0.022567	-0.32675	-0.54713	0.17301	-0.80225	0.0777	-0.42773999999999995	-0.046956	0.10322	-0.026518	0.57299	-0.060874	-0.43167	0.26807	-0.09829	0.42978	0.52303	-0.18461	0.092059	0.14175	-0.3388	0.029789999999999997	0.40553	0.011425	-0.41453	-0.39821	0.15513	0.37406999999999996	-0.08986	0.081328	0.58332	0.2465	-0.0256	0.66017	-0.37603000000000003	-0.54187	-0.18026	0.31165	-0.40119	0.15619	-0.13627999999999998	0.43656999999999996	-0.32874000000000003	0.06066900000000001	0.071392	0.10853	0.26439	-0.44737	0.21011999999999997	-0.2015	0.097086	-0.52007	-0.19951	-0.0065473	0.13099	0.39986	-0.13282	0.09084600000000001	-0.54408	-0.74417	-0.6140899999999999	0.38654	-0.5587300000000001	0.081915	0.06429299999999999	0.012713	-0.45721000000000006	1.084	0.20828000000000002	0.71663	0.31590999999999997	0.8652700000000001	-0.20681999999999998	0.11797	-0.08595599999999999	-0.12162	-0.35689	0.06261599999999999	-0.089647	0.50192	0.013481	0.11095999999999999	-0.80828	0.56748	0.7560899999999999	0.14292	-0.26789	0.014972999999999998	-0.67629	-0.075587	-0.07418999999999999	-0.31093000000000004	0.045771	-0.55594	-0.11815	-0.41797	-0.48293	-0.7225	0.51746	-0.10567	-0.17968	-0.27636	0.16674	-0.36591	-0.23016	-0.18563	0.38956	0.5534399999999999	-0.27797	0.32014000000000004	-0.52263	0.27029000000000003	0.075708	-0.25048000000000004	-0.10231	0.76988	-0.12829000000000002	0.10630999999999999	-0.37725	-0.4266	-0.40399	0.46403	0.23674	-0.3032	0.15129	-0.13631	0.094375	0.1573	-0.49661000000000005	0.3046	-0.21061	0.019195	0.0272	-0.17073	0.35483000000000003	-0.2196	-0.067911	0.031769	-0.13633	-0.41743	-0.05435	0.47857	-0.21015999999999999	0.036885	0.41098	0.06512799999999999	-0.096844	-0.053628999999999996	0.13097	-0.3102	0.17179	0.31156999999999996	0.094706	0.3815	0.57381	-0.51435	0.31440999999999997	-0.18985	0.033264999999999996	0.45178	0.25609	-0.14057999999999998	0.11921	0.22705999999999998	0.037175	0.25661999999999996	-0.81216	0.41973999999999995	0.063076	0.62962	0.15082	0.1979	-0.78323	0.23218000000000003	0.49077	-0.072013	-0.10422999999999999	0.4149	0.066604	-0.45776999999999995	0.19747	-0.08400099999999999	-0.39623	-0.5979399999999999	-0.22683000000000003	-0.1093	-0.47367	-0.20305	0.67774	-0.64666	0.20909	-0.5153300000000001	-0.42101000000000005	0.19484	-0.033671	-0.030314999999999998	0.27824
ZJL109	0.25874	-0.2576	-0.04796	-0.44076000000000004	-0.050423	0.5266	-0.073529	-0.61142	-0.5653600000000001	0.22088000000000002	0.19555	0.06884	0.47341000000000005	0.007742399999999999	-0.089383	0.45113000000000003	0.091067	0.33045	0.14288	0.016165000000000002	-0.35993	0.39739	0.31701	0.31777	0.029622000000000002	-0.79589	-0.0049417	0.29802	0.14551	0.19255999999999998	0.2263	0.43531000000000003	-0.17382999999999998	-0.094426	0.9712	0.53613	0.20415	-0.71828	0.28169	0.10286	-0.33931	0.39395	-0.32675	0.4734	-0.042631	0.36730999999999997	0.54764	0.049394	0.39685	-0.42003999999999997	-0.44873	-0.355	-0.11492000000000001	-0.5189	-0.049158999999999994	0.54769	0.032122000000000005	0.31089	-0.30033000000000004	0.78645	-0.47983000000000003	0.50432	0.091938	-0.14735	-0.15237	0.27021999999999996	-0.7490000000000001	-0.0091134	-0.008165	-0.0073736999999999995	0.00168	0.11342	-0.020705	-0.026677999999999997	0.6915600000000001	0.62562	-0.28468000000000004	0.079932	-0.085279	-0.51937	-0.25754	-0.47305	0.7023	-0.30713	0.07180399999999999	0.09170700000000001	0.09062	-0.37393000000000004	-0.15728	0.12582000000000002	0.9692	-0.44085	0.48406000000000005	-0.36518	0.08456	-0.4141	-0.33868000000000004	0.79428	0.0036510999999999996	0.693	0.018158	0.014205	0.28624	-0.22629000000000002	0.29514	-0.073358	0.048531	-0.48752	-0.28406	-0.44073	0.49753000000000003	0.43933999999999995	0.39579000000000003	0.12984	0.42899	0.16612000000000002	-0.5744600000000001	0.20168	-0.4471	0.34868000000000005	0.36286	-1.1209	0.60824	-0.093389	-0.073005	-0.30236999999999997	-0.8749399999999999	-0.3102	0.20953000000000002	-0.22896999999999998	-0.14128	0.39733	0.15535	0.35995	-0.0721	0.47875	0.16421	0.10808	-0.12037	-0.45221000000000006	-0.51481	0.12994	-0.00016737	0.3812	0.073781	-0.61335	0.20694	-0.57622	-0.27169	0.36265	-0.34125	0.16988	0.33842	-0.22254000000000002	0.68087	0.6898	0.38913000000000003	0.32137	-0.8674700000000001	0.18911	-0.12262999999999999	-0.9540299999999999	-0.43143000000000004	-0.46717	0.48418	0.10655999999999999	-0.11452999999999999	-0.083386	0.12287000000000001	-0.51661	-0.86124	0.5865600000000001	-0.20022	0.14632	-0.3179	-0.081374	0.10125	0.2321	0.050352999999999995	-0.37309000000000003	0.64903	0.10442	0.095114	0.21861999999999998	-0.12372000000000001	-0.20096	0.095939	0.48988999999999994	-0.47316	-0.30869	0.7095199999999999	-0.033173	-0.0032101	-0.056879	-0.46586000000000005	-0.13546	-1.2028	0.29231	-0.20604	-0.42378000000000005	0.10595999999999998	0.27076	-0.40293	-0.27885	0.7258600000000001	0.11784000000000001	-0.013958000000000002	0.32728	0.011840999999999999	0.44303000000000003	-0.57722	-0.44378999999999996	-0.017995	-0.042793	0.034329000000000005	-0.86611	-0.16477999999999998	-1.0005	-0.45268	0.17870999999999998	-0.08971799999999999	-0.057976	0.24586999999999998	-0.28943	0.59359	-0.020154	-0.59385	-0.65445	0.052584000000000006	-0.30193000000000003	-0.5595100000000001	-0.4611	-0.1714	-0.31187	0.5069100000000001	-0.34426999999999996	0.37234	-0.35771	0.082664	0.24806	-0.61331	-0.36546999999999996	0.056669000000000004	-0.1986	-0.07903099999999999	0.030706	0.18062	0.15905999999999998	-0.011909999999999999	0.023875999999999998	-0.5646	0.41503	0.85064	-0.22514	-0.33394	0.09959900000000001	0.0489	-0.10592	0.40484000000000003	-0.45193	-0.010213	-0.37735	0.18645	0.43131	0.20851	-0.32572	0.78486	0.16471	0.28598	0.35909	0.067386	0.15132	-0.095788	0.36649	0.33959	-0.32679	-0.26871	-0.5401100000000001	-0.74429	-0.39671999999999996	-0.1861	0.0065911	0.30367	-0.41962	-1.0069	-0.33751	-0.10489000000000001	0.022168	-0.30071	-0.20074	0.07164	0.078811	-0.6120800000000001	-0.27657	-0.27668000000000004	-0.61368	-0.53022	0.048722	0.22874	0.2453
ZJL11	-0.45733999999999997	0.65053	-0.15815	0.08969400000000001	-0.33888	0.20865	0.11886	-0.17790999999999998	0.44236000000000003	0.52425	-0.47568999999999995	0.06754	-0.09245	-0.28936	-0.19115	-0.13677999999999998	0.53235	0.59807	-0.37532	0.20374	0.013382	0.70415	-0.43138000000000004	-0.2938	0.35675999999999997	0.17733	0.018348	0.20439000000000002	0.027357	0.091145	-0.1905	-0.26602	-0.27111999999999997	0.33178	0.6913	0.7781100000000001	-0.22969	-0.13890999999999998	0.31982	0.6732899999999999	0.29205	0.47411000000000003	0.40542	-0.28485	0.08663799999999999	0.74228	0.16092	-0.7084	-0.20229	-0.29633000000000004	-0.34601	0.44193999999999994	-0.48463	0.39855	0.10829000000000001	-0.32164	-0.30398000000000003	0.079417	0.51185	0.33005	0.24903000000000003	0.25078	0.23551	-0.24766999999999997	-0.13465	0.17745	-0.043437	0.53051	0.59354	0.08605800000000001	0.26504	0.80524	0.1039	-0.29278000000000004	0.028364	0.74202	0.32791	0.01732	0.3197	0.25281	0.63908	-0.26655	-0.33919	-0.20173	-0.41172	-0.34502	0.033907	0.38843	0.28945	-0.9144899999999999	0.18479	0.1743	1.0939	0.44916000000000006	-0.20676	0.10365	-0.2702	0.20876	-0.48446999999999996	0.33824	0.039108	-0.44916000000000006	-0.45408999999999994	-0.087713	0.036844	0.21228000000000002	0.26553000000000004	0.096568	-0.07384299999999999	-0.38205	0.37535999999999997	-0.03515	-0.6986600000000001	0.77077	0.15864	-0.5171100000000001	-0.012544	-0.061530999999999995	-0.16264	0.23342	-0.091611	-0.6269	0.088175	0.37883	-0.36851999999999996	-0.094449	-0.47253999999999996	0.75902	0.021373	0.27899999999999997	-0.19971	0.068748	-0.061264	0.10525999999999999	0.1844	-0.24051	0.26268	-0.9141299999999999	-0.23836	0.38528	-0.093175	0.38008000000000003	-0.068162	0.052660000000000005	0.23648000000000002	0.006917	0.20063	0.72244	-0.17595999999999998	-0.073516	-0.6157	-0.30706	-0.6530199999999999	0.24395999999999998	-1.02	-0.55577	0.44343999999999995	-0.54686	-0.31583	0.0046538000000000005	-0.50415	0.067236	-0.50527	0.12062	0.21193	0.26555	-0.34134000000000003	-0.038672000000000005	-0.33429000000000003	-0.12976	0.038363	0.087841	0.18774000000000002	-0.21473000000000003	-0.40871	-0.41953999999999997	0.11979000000000001	0.54027	0.74764	-0.50616	-0.6831699999999999	-0.8994700000000001	0.23008	0.55062	-0.4177	-0.71467	-0.0019383	0.43588999999999994	0.5240100000000001	-0.42276	-0.60718	-0.084378	0.16542	-0.13364	0.4566	0.30796999999999997	0.40986999999999996	-0.18548	-0.27386	0.3079	0.0091281	0.22002	0.027460000000000002	-0.20256	0.31445	0.78837	-0.27282	-0.29174	0.1175	0.28157	-0.11216	-0.030902	-0.45235	-0.23663	-0.44226000000000004	0.58332	-0.11905	-0.68019	0.092073	-0.15381	-0.53535	0.063454	-0.31359000000000004	0.24295999999999998	-0.064323	0.17912999999999998	0.15275	0.57832	-0.77073	-0.026219	-0.29591	0.004553499999999999	-0.44067	0.23371	0.31745999999999996	0.031106	-0.20189000000000001	0.23619	0.7243	-0.19546	0.071742	-0.36588000000000004	-0.35936	-0.060320000000000006	0.43362	0.23214	-0.08548	0.41063	-0.23106	-0.070869	0.02557	0.39229	-0.17776	0.10805	0.26515	0.22524	0.19111	0.10272	-0.032146	-0.29201	-0.14282999999999998	-0.18961	0.49407	0.16491	-0.0060485	-0.07514	-0.010989	0.25303000000000003	0.33669	0.74754	-0.0022174	0.067423	-0.373	-0.063941	0.023605	0.1347	0.76377	-0.099437	-0.47542	-0.49178	0.21479	0.0012797000000000002	0.40547	0.34568000000000004	-0.7014199999999999	-0.056478999999999994	-0.58529	-0.047563999999999995	-0.28736	-0.27203	0.087296	0.18336	-0.29278000000000004	0.24286	0.057471	-0.49331	-0.065086	0.046267	0.54455	0.14243
ZJL110	-0.43633	0.057562	-0.19513	0.29417	0.3261	0.10280999999999998	-0.23631	-0.2035	-0.37468	0.2985	-0.034056	0.013011000000000002	-0.40862	0.056406	-0.19727	0.65293	0.28656	0.29822	-0.54435	-0.2613	0.19641	0.12646	-0.41205	0.79538	0.62688	0.018823	0.35716	-0.13468	-0.39376	0.82967	0.4855	0.15698	0.016475999999999998	-0.22785999999999998	0.49111000000000005	0.45842	-0.5172800000000001	-0.058135	0.35295	0.21088	-0.30024	-0.041714999999999995	-0.9827100000000001	-0.094984	-0.71621	-0.12458	0.49249	0.16259	0.035537	0.75898	0.046396	0.0012489	-0.36796999999999996	-0.21575999999999998	-0.76925	-0.35927	0.11152999999999999	0.50407	0.84665	0.78186	0.028839	-0.51375	-0.2766	-0.27055999999999997	0.22036999999999998	-0.08039299999999999	-0.017611	-0.007398399999999999	0.48336999999999997	0.58868	-0.35343	0.60292	-0.1359	-0.055275	-0.20622	-0.021669	0.20486999999999997	0.21524000000000001	-0.41015	-0.17605	-0.20072	0.14275	0.026935	0.5130399999999999	0.27705	-0.9725799999999999	0.29095	0.42561000000000004	0.17652	0.14737999999999998	-0.54597	0.15942	-0.06612799999999999	-0.075805	-0.40601	-0.21483000000000002	0.33666999999999997	-0.39696	0.42683999999999994	0.13001	-0.20729	0.19171	-0.1415	-0.068302	-0.12409	-0.52376	-0.14826	-0.46642	-0.17232999999999998	-0.089792	0.10438	0.96446	-0.040770999999999995	0.22843000000000002	-0.45863000000000004	-0.061029999999999994	-0.21771	0.79318	0.1117	0.3098	0.14335	0.26188	0.6631600000000001	0.21568	0.35166	-0.080412	-0.43485	-0.27447	-0.32332	-0.19412000000000001	-0.16096	0.21435	-0.48603	-0.040854	0.078151	-0.042811	0.20998000000000003	-0.41578999999999994	-0.011523	0.38622	0.55914	-0.62397	-0.55312	0.013663999999999999	0.10390999999999999	-0.040551	-0.10993	0.25013	0.37735	0.19705999999999999	-0.15143	0.10263	-0.46993999999999997	-0.17805	0.022238	0.21529	0.3898	-0.87951	0.77035	0.27188	-0.81167	-0.20371	-0.47971	0.12812	0.060847000000000005	-0.86721	0.055942	0.267	-0.11001	-0.8190000000000001	-0.32043	0.38045	0.52318	-0.23114	0.38067	-0.7356600000000001	0.2055	0.50289	-0.61405	-0.50831	0.09032799999999999	0.12525999999999998	0.54871	0.2482	0.48668999999999996	0.22738000000000003	0.80556	-0.5012	0.5848	-0.029744	0.37265	0.070513	0.52105	0.81697	-0.14052	0.19729000000000002	-0.15272	-0.028501	0.48799	0.14682	0.52493	0.46315	0.47293999999999997	0.010009	0.2913	0.5584899999999999	-0.83406	-0.1252	0.1378	0.15442	0.11270999999999999	0.58512	1.0263	-0.50036	0.22211999999999998	0.21255	0.16689	0.13726	-0.08616	-0.19347	-0.11535	0.20001	-0.0055479	0.062937	0.03196	-0.17077	-0.5316	0.41145	0.042272000000000004	-0.69635	0.12749000000000002	-0.086939	0.083422	0.27701	-0.57065	0.25040999999999997	-0.020186000000000003	-0.38871	0.1665	-0.40673000000000004	0.68021	-0.49509	-0.33976999999999996	0.3875	-0.6524300000000001	-0.21803000000000003	0.08255900000000001	-0.41389	-0.38661	0.63889	-0.45274	-0.29704	-0.0052797	-0.6231	-0.076888	-0.3383	0.14770999999999998	-0.35019	0.029675	0.011574	0.38545999999999997	-0.18505	0.01013	0.3161	-0.22749	0.46173000000000003	0.51544	-0.39748	0.3597	-0.10077	-0.42246000000000006	0.076338	0.32054	0.30273	0.0068035	0.34465	0.66064	0.49642	-0.65652	-0.94949	-0.11821	0.46811	-0.27609	0.040523	0.42096000000000006	-0.32303000000000004	-0.04359	0.32031	-0.45536000000000004	-0.54109	0.13297	0.52662	0.38269000000000003	0.52236	-0.26266	-0.7973600000000001	0.54669	0.6573	-0.25143000000000004	-0.66594
ZJL111	-0.25544	0.07092899999999999	-0.23465999999999998	0.043852999999999996	-0.070732	-0.4357	-0.21073000000000003	-0.42351000000000005	0.049597	-0.40578000000000003	-0.23456	0.16401	0.48105	-0.6084	1.1372	0.20295	-0.14715999999999999	-0.84409	0.18813	0.08552	0.068695	0.12934	-0.40467	-0.31117	-0.17739000000000002	-0.50578	0.4448	0.93255	0.61361	0.038222000000000006	-0.33787	-0.11804	-0.24893	0.1483	-0.39323	-0.064201	0.14670999999999998	-0.97605	0.1477	0.46721	0.8327399999999999	-0.25643	-0.7482300000000001	0.40431	-0.34683	0.046591	0.9573299999999999	0.016337	0.14957	-0.073614	-0.11095999999999999	-0.21227	0.03612	0.27341	0.50843	0.090336	0.036847000000000005	-0.035345999999999995	0.080275	0.07055499999999999	0.049321	-0.44142	-0.31451999999999997	0.28934	0.27703	0.93506	-0.31	0.066595	-0.3012	0.40938	0.30839	-0.68219	0.73723	0.16638	0.7340000000000001	-0.72995	0.28131999999999996	-0.4709	0.050806	0.18749000000000002	-0.22225	-0.32125	0.31793000000000005	-1.0393	0.56411	0.19233	-0.8034399999999999	0.15944	0.21405	-0.14134000000000002	-0.47641000000000006	-0.19277	-0.45593999999999996	-0.30343000000000003	0.56584	-0.17201	-0.20073	-0.5827100000000001	0.52455	-1.2356	-0.16862	0.3958	0.095927	-0.70282	-0.11025	-0.51725	0.033164	0.14231	-0.62336	-0.41922	0.37283	0.93509	-0.27036	-0.55057	-0.61214	-0.6359199999999999	0.085186	0.34709	-0.057666999999999996	-0.45966999999999997	-0.31694	-0.9232899999999999	0.084116	-0.91228	-0.29251	-0.91961	-0.37590999999999997	0.72287	-0.028676	0.74798	0.12428	0.83935	0.33855999999999997	0.048625	0.081067	-0.08265299999999999	0.78781	0.54082	-0.011276000000000001	-0.01745	-0.38715	-0.3297	-0.077805	0.32559	0.023714	0.9868399999999999	-0.18766	-0.27483	0.3279	0.1915	-0.10475	-0.7246199999999999	-0.13030999999999998	-0.43715	-0.19998	0.091875	-0.079283	0.23043000000000002	-0.1406	0.3851	-0.3292	0.22751999999999997	-0.68625	0.26625	0.058586	-0.29456	-0.31542	0.63999	-0.098399	0.15217	-0.7247100000000001	0.52946	-1.2865	-0.014863	0.04448	-1.0294	0.15542	0.44335	-0.53115	-0.7410899999999999	0.34278000000000003	-0.016874	0.66356	0.10883	0.76461	-0.40629	1.5948	-0.00089894	0.31188	0.23656	0.011227	-0.16446	-0.14275	-0.23840999999999998	-0.17797000000000002	-0.45758000000000004	-0.14634	-0.051788	-0.014631	-0.23413	0.52104	-0.3366	0.11653	0.18879	-0.028286000000000002	0.22136999999999998	0.096803	0.74725	-0.25701	-0.22008000000000003	0.50137	-0.37346999999999997	-0.19238	-0.10002	-0.13810999999999998	-0.056527999999999995	-0.32425	0.39719	0.12180999999999999	0.13602999999999998	-0.34636999999999996	0.33897	-0.61131	0.58401	0.14944000000000002	0.37828	0.056989	0.15680999999999998	0.58332	0.3549	-0.3188	-0.083402	-0.439	0.14425	0.71518	0.18202000000000002	0.7258899999999999	0.10559	0.30355	0.3957	0.60019	0.5878	0.044331	0.36282	0.041774	-0.15792	-0.17848	-0.17701	0.28515	0.15705	-0.16933	0.53423	-0.67394	0.61822	-0.66593	0.27512	0.2635	-0.16003	-0.029938	-0.23344	0.056478	-0.7242	-0.038011	0.15414	-0.35168	-0.047411	0.13483	-0.40268000000000004	-0.065772	0.012708	-0.07523099999999999	1.148	-0.43417	-1.0535	0.5683199999999999	0.48473999999999995	-0.33976	0.17906	-0.7951699999999999	-0.49191999999999997	-0.57101	0.24495999999999998	-0.0055446	0.73946	-0.32964	-0.43803000000000003	-0.33560999999999996	0.085449	-0.55803	0.33575	0.43793000000000004	-1.1438	0.14477	-0.3726	-0.7889	-0.050321	0.20973000000000003	0.45252	0.20365999999999998	-0.22036999999999998
ZJL113	-0.43646999999999997	-0.31595	-0.064084	0.12742	0.09460299999999999	-0.10949	-0.5573100000000001	-0.12135	-0.10800000000000001	0.36626	-0.07192	-0.019855	-0.036632	0.30259	-0.06966699999999999	-0.61373	-0.031557	0.18222	-0.38385	0.068768	-0.48252	-0.42705	-0.42908	0.23586	0.23465999999999998	-0.47616	-0.11444000000000001	-0.9827799999999999	0.01627	0.66281	0.47689	-0.5061899999999999	0.27274	-0.25811	0.36388000000000004	0.63266	0.52813	-0.71844	0.39425	0.12842	-0.057723000000000003	-0.29899000000000003	-0.21955	-0.6110300000000001	-0.025502	0.01566	0.46861	-0.23709000000000002	-0.4164	0.49205	-0.12470999999999999	-0.42289	0.64261	-0.25611	-0.64962	-0.22152	0.06693400000000001	-0.32466999999999996	-0.027774	0.1986	-0.010101	-0.2651	-0.25296	0.054953999999999996	0.46307	0.057946000000000004	-0.20995999999999998	-0.14060999999999998	0.27245	-0.05143	0.0020287	-0.23505	-0.18632	-0.44916000000000006	0.31235999999999997	0.038249	-0.2983	-0.025099	-0.71462	-0.55788	-0.13363	0.35109	-0.092389	-0.15025	0.6352300000000001	0.14297	0.59543	-0.25461999999999996	-0.15399000000000002	0.28063	-0.16683	-0.45826000000000006	0.15031	0.038366000000000004	0.3029	-0.13925	0.070338	0.16731	0.30091	0.50337	0.75854	0.12616	0.16177	0.084387	0.018144	-0.34048	0.095644	0.08735599999999999	-0.32859	0.08155499999999999	-0.044835	0.31895999999999997	-0.19972	0.35052	0.022455000000000003	0.43099	-0.27510999999999997	0.8226899999999999	0.63356	-0.32500999999999997	0.33735	-0.10231	0.25609	0.24889	0.58403	-0.38018	-0.17025	-0.13189	-0.008955	-0.31567	0.040956	0.43811000000000005	-0.36356	-0.55402	-0.20564000000000002	0.077334	-0.36843000000000004	0.37732	0.07145499999999999	0.021063	-0.33341	-0.39486	0.056996000000000005	-0.6893100000000001	0.28038	-0.00030194	-0.43959	0.32641	0.39205	-0.69828	-0.5289	-0.20382	0.29705	-0.28938	0.062777	0.1011	-0.31673	-1.0445	-0.087626	0.13675	0.17157	-0.10905	-0.26352	-0.31404	-0.013757	0.055467999999999996	-0.22916999999999998	0.23840999999999998	0.71983	-0.45992	-0.53475	-0.05512	0.017165	-0.20859	0.1535	-0.46037	-0.085425	0.65973	0.19165	0.093194	0.19816	-0.12735	0.12449	0.098536	0.71194	-0.0070441	0.79362	0.36421	-0.23945999999999998	-0.27939	0.071983	-0.27285	-0.054965	0.086453	0.084039	-0.09153700000000001	-0.36411	0.23589000000000002	-0.61884	-0.99139	-0.08204600000000001	0.07550499999999999	0.28115999999999997	1.1095	0.12192	-0.7336699999999999	-0.15595	0.97098	-0.26944	-0.16827999999999999	0.17544	0.009897399999999999	0.052076	0.22095	0.34911	0.26792	0.044633	-0.56076	-0.018556	-0.15339	-0.10948	-0.22462	0.083963	-0.11828	0.073337	-0.097858	-0.4401	0.50859	0.12470999999999999	-0.79348	0.73432	-0.075644	-0.16602	0.63237	0.17107	-0.14255	0.58515	-0.08630399999999999	-0.36219	0.61369	0.52469	0.15909	-0.82685	0.7751100000000001	-0.17479	0.9243	-0.41452	0.028676	0.19525	-0.22941999999999999	0.39628	0.06674	-0.075348	0.033326999999999996	0.20085999999999998	0.10194	-0.5154	0.92296	0.61258	-0.39988	0.040644	-0.10240999999999999	0.17199	-0.41796000000000005	-0.73633	0.14307	-0.3778	0.35966	0.33436	-0.28383	0.31411	-0.03305	0.53693	0.14415	-0.31008	-0.048535	0.28311	-0.14498	-0.79362	-0.29312	0.22629000000000002	0.040149000000000004	-0.20576	0.14081	-0.32429	0.36423	0.061616	0.75322	0.056683000000000004	-0.45281000000000005	0.21473000000000003	0.096513	-0.28231999999999996	0.3839	-0.3438	-0.050253	-0.062696	0.78879	0.76689	-0.050706
ZJL114	-0.31351999999999997	-0.35048	-0.18804	-0.0941	0.055413	-0.14807	-0.39593	-0.34518000000000004	0.4294	0.522	-0.11155999999999999	0.27733	0.19552	0.0088956	-0.004802300000000001	0.028332999999999997	0.18174	0.09368	-0.10482999999999999	0.066048	0.24141999999999997	0.039179000000000005	-0.053954999999999996	0.059497	-0.1481	0.5713699999999999	-0.091531	-0.33551	0.28799	-0.004826899999999999	-0.29735	-0.086417	-0.033955	-0.48806000000000005	0.7106600000000001	0.13405999999999998	-0.3646	0.34529	0.28839000000000004	0.33519	0.3153	0.12580999999999998	-0.18235	-1.0139	-0.10028	-0.048119	0.11051	-0.38700999999999997	-0.44133	0.31754	-0.32805	0.62465	0.14347000000000001	-0.23139	0.015105	-0.39352	0.36339	-0.7346199999999999	-0.0022695	-0.01485	0.23340999999999998	-0.5986199999999999	-0.45468000000000003	-0.10628	0.132	-0.15907000000000002	-0.0062916000000000005	-0.13398	0.12034	0.031581	-0.11707000000000001	0.37572	-0.26852	-0.758	0.21231999999999998	0.14706	-0.26569	-0.6502399999999999	-0.014790000000000001	-0.48706000000000005	-0.8653799999999999	0.21481	-0.6984899999999999	-0.3668	0.19230999999999998	0.21372	0.37535999999999997	0.24038	0.38264000000000004	0.21100000000000002	0.11342999999999999	-0.19179000000000002	-0.37564000000000003	0.097902	-0.076964	-0.30405	0.36768	0.31194	0.24961999999999998	0.10625	0.48668	0.40393	-0.087077	0.19117	-0.023735	-0.17948	-0.2286	-0.3436	-0.36983	0.035911	-0.004693800000000001	0.10862000000000001	-0.11292	0.37237	0.22025	-0.35595	-0.005028800000000001	0.7431800000000001	0.08653999999999999	-0.08530900000000001	0.59573	0.30828	0.46275	0.39258000000000004	0.060349	-0.36583000000000004	-0.28535	-0.41351000000000004	0.03329	0.24341	0.78203	0.1397	-0.63244	0.012281	0.00046405	-0.016503	-0.14068	0.28255	0.20215	-0.26056999999999997	-0.055336	0.35055	0.40676	0.07584099999999999	0.70202	0.0158	-0.38827	0.23761	0.31773	-0.41151000000000004	-0.58023	0.10099999999999999	-0.26661	0.12502	-0.41757	0.40026	0.2849	-0.45705	0.16346	0.21575999999999998	-0.06308	0.21524000000000001	-0.095953	-0.016652	0.84039	-0.28124	0.27128	0.19477	0.58354	-0.35279	-0.66096	-0.33305999999999997	0.44123	-0.91943	-0.30095	-1.0123	0.07838099999999999	0.6046199999999999	0.24689	-0.37483	0.34098	-0.22965	0.28855	0.0042634	0.32802	-0.13213	0.6313300000000001	0.28886999999999996	-0.26964	-0.073362	0.30206	-0.19066	-0.29031999999999997	0.19297999999999998	0.05599199999999999	0.3515	-0.15616	-0.076849	-0.056171000000000006	-0.34536999999999995	-0.4664	0.80352	-0.23276	0.1507	-0.056851	-0.28888	0.20549	-0.054988999999999996	-0.23526	-0.058827	0.31966999999999995	-0.43073999999999996	0.6479699999999999	0.11805999999999998	-0.17160999999999998	-0.21858000000000002	0.067236	-0.28786	0.30295	-0.34056	-0.5797399999999999	-0.26761999999999997	-0.19047	0.064455	-0.6992	-0.54862	-0.065481	0.39034	0.11861	-0.19856	-0.097592	0.10329	-0.10245	0.10918	0.20363	-0.16806	0.12487999999999999	-0.27364	-0.22313000000000002	-0.024026	0.41938000000000003	-0.35327	-0.70801	0.54403	0.5798300000000001	0.022153	-0.064929	-0.19072	-0.05205599999999999	-0.40434000000000003	0.18233	-0.50771	0.12903	0.58657	-0.17658	0.33189	-0.63743	0.3024	-0.32704	-0.62648	-0.056869	-0.16494	0.057867999999999996	-0.45623	-0.34141	-0.23815	-0.26755	-0.07445399999999999	-0.023389	0.2483	-0.074914	-0.56567	0.35388000000000003	0.42591999999999997	0.17289000000000002	-0.07879	0.7397699999999999	0.49993000000000004	-0.3378	-0.56057	0.45211	-0.07338	-0.61321	-0.39605999999999997	0.34084000000000003	0.15735	0.19962	0.13963	-0.10837999999999999	-0.27265	-0.095665	-0.1401	0.26835	0.073935	-0.36146	-0.57565	0.53987	0.49859	0.50636	0.11004000000000001
ZJL115	0.41175	-0.083526	-0.18375999999999998	-0.31914000000000003	0.17922000000000002	0.35204	-0.28802	0.17989000000000002	0.0964	0.56016	0.089919	0.86008	0.9285899999999999	-0.26487	-0.13905	0.91525	-0.14162	0.42591	-0.34010999999999997	0.6279100000000001	0.11740999999999999	1.0466	-0.26397	0.29059	0.94981	0.1022	-0.4787	-0.24459	0.087739	-0.12736	-0.026411	-0.24816999999999997	0.5436300000000001	0.17056	-0.055510000000000004	0.45577	-0.20052999999999999	0.13294	-0.37669	0.4407	-0.29136	1.1145	0.43392	-0.35186999999999996	0.32932	-0.19333	0.38497	0.00023444	0.76951	0.20644	-0.09869700000000001	-0.16118	-0.11572	0.34517	0.18062999999999999	-0.22868000000000002	0.27257	0.043077	-0.38834	-0.20961999999999997	0.57321	-0.28851	0.39066999999999996	-0.056620000000000004	0.008520999999999999	-0.094279	-0.67585	0.5485399999999999	-0.040866	-0.041029	0.84806	-0.49676000000000003	0.7946300000000001	0.12571	-0.38887	-0.049707	-1.3269	-0.1055	-0.17795	-0.05155	-0.30551999999999996	0.3415	0.9484	-0.083891	-0.30156	-0.8094399999999999	0.039887	1.0056	-0.1774	0.054917999999999995	0.9373799999999999	0.12057000000000001	0.70229	-0.21006	-0.33233	-0.85751	0.44361000000000006	0.13071	-0.056802	0.41453	-0.49728	0.37173	-0.88794	-0.022619999999999998	-0.023737	-0.0087322	0.31232	-0.021934	-0.35	0.23258	-0.72726	-0.050446	-0.007067	0.069875	-0.69301	-0.14507	-0.17298	0.14024	-0.25035999999999997	-0.22708000000000003	-0.21871999999999997	0.15896	0.32142	-0.22127	0.62128	0.10226	0.57258	-0.14892	0.6068600000000001	0.48755	0.39493	0.5299699999999999	-0.21305	0.47036999999999995	0.17944000000000002	0.47944	0.45721999999999996	0.050388999999999996	-0.060815999999999995	0.2235	0.4825	0.7419600000000001	0.62652	-0.29802	-0.1408	0.45863000000000004	0.042488	-0.25849	0.15419000000000002	0.16199000000000002	-0.37081	-0.15794	-0.06966	-0.12369000000000001	0.13838	-0.64456	0.41098	-0.32927	0.57945	0.1896	0.1996	0.038261	-0.23268000000000003	-0.28594	0.59238	0.29441	0.5753	-0.5557300000000001	-0.017384	-0.49928999999999996	-0.4131	0.44332	-0.32611	-0.08306799999999999	0.21156	-0.25614000000000003	0.19955	-0.0080408	-0.6747	-0.006448000000000001	-0.39964	-0.59155	0.58897	0.21556999999999998	0.47798	-0.2163	0.6488	0.057510000000000006	0.3965	-0.062172000000000005	-0.39844	0.13544	0.077707	-0.271	-0.07126	0.40303	0.2808	0.4271	0.5305300000000001	-0.13275	-0.55566	-0.26365	0.55706	0.32983	0.26059	-0.13380999999999998	0.43135	-0.032864	-0.73331	-0.10720999999999999	0.14242	-0.046133	0.19744	-0.33624	0.26755	-0.27155	-0.19719	0.52227	0.17471	-0.62822	-0.12605	-0.07611799999999999	-0.18124	-0.5282	0.5252600000000001	-0.012965	-0.037946	-0.21733000000000002	0.31635	-0.0027697	0.21205	0.28734	0.016605	-0.31438	0.29363	0.17709	-0.26218	0.20352	0.2068	-0.066333	0.8300700000000001	-0.012012	-0.38265	-0.31225	0.31895	-0.34779	0.23563	0.16180999999999998	0.34848	-0.35504	0.7199	-0.16093	-0.31695	-0.41293	0.69389	-0.26383	-0.44832	0.23623000000000002	0.044744	-0.81838	0.34110999999999997	0.14043	-0.059614999999999994	0.43865	0.038124	0.0023611	0.20563	0.5978399999999999	-0.39913000000000004	-0.10703	-0.18109	-0.1318	0.10858	-0.59477	0.6516	-0.0013901	-0.35381	-0.24195	-0.075138	-0.47641999999999995	0.28336999999999996	-0.5424100000000001	0.12967	1.0327	-0.18137	0.22419	0.14175	-0.022055	0.00774	-0.19460999999999998	0.032606	0.1734	0.8833	-0.56847	0.0044501	-0.62992	0.26958000000000004	0.10126	0.39631	0.67084
ZJL116	-0.2953	-0.6340899999999999	0.10977999999999999	0.5645600000000001	-0.7186100000000001	0.042401999999999995	0.36029	-0.031107	0.35917	0.26839	0.29835	0.062341999999999995	-0.062279999999999995	-0.55332	-0.34502	0.040409	0.41595	-0.67994	-0.39100999999999997	-0.46595	-0.1634	-0.36479	-0.15313	0.50955	-0.175	0.09007899999999999	-0.16885999999999998	1.4741	-0.29941	0.7810199999999999	0.45629	-0.60401	0.61892	-0.059198	0.55479	0.39384	0.044374000000000004	-0.19832	-0.0070582	0.61743	0.046604	-0.54864	1.0263	0.78486	-0.5159	0.22486	0.36130999999999996	-0.15184	-0.49053	-0.2073	-0.63747	-0.61764	0.06766799999999999	-0.20765	0.10480999999999999	0.08976100000000001	-0.11385	0.6545	-0.22411	0.41708999999999996	0.16019	0.9073100000000001	0.5848899999999999	-0.043485	-0.049888999999999996	0.21458000000000002	-0.16039	-0.5553100000000001	-0.79935	-0.18934	-0.7639100000000001	0.7197100000000001	-0.30532	-0.44465	0.21466	0.39796	-0.11442000000000001	-0.033226	0.013777000000000001	-0.43913	-0.21352	0.62341	-0.43843999999999994	0.36253	-0.15992	0.009856700000000001	0.27460999999999997	-0.080717	-0.085752	0.16763	0.2195	0.056213	-0.55502	-0.070578	0.23375	-0.44966000000000006	0.41475	0.9890399999999999	0.25023	-0.13065	0.25198000000000004	0.40053	0.26078	0.5726600000000001	0.61316	0.25129	0.19914	0.11359000000000001	5.9021e-05	0.38093	-0.50988	0.5310699999999999	0.13935999999999998	0.21019000000000002	-0.094479	-0.14199	-0.31637	-0.081046	0.23126999999999998	0.37496	-0.02642	-0.8156800000000001	-0.09488200000000001	0.09667	-0.093193	-0.41528999999999994	-0.54138	-0.10752	0.45378	0.97311	0.12434	-0.46915	-0.06940700000000001	-0.8184	-0.7884	0.34526999999999997	0.47863	0.24974000000000002	-0.52281	-0.13422	-0.68415	0.73111	-0.035587	0.7190000000000001	-0.35143	-0.51069	-0.18581	0.19179000000000002	0.35415	-0.025519999999999998	0.0051256999999999995	-0.19145	0.9486899999999999	-0.43096	0.15562	0.17723	0.5162100000000001	-0.068742	0.058963	0.43572	-0.30498000000000003	-0.47623999999999994	-0.024939	-0.13165	0.067735	-0.22344	0.49278	0.48512	0.48195	0.24188	-0.63046	0.64693	0.12024000000000001	-0.1191	-0.042718	0.73661	-0.61373	0.056336000000000004	0.32331	-0.54142	0.46993	0.14044	0.65895	0.0040903	0.047005	-0.54069	0.5885600000000001	0.58077	0.26516	0.05452100000000001	-0.12574000000000002	-0.033510000000000005	0.45068	-0.38711999999999996	0.31651	0.55904	-0.40924	-0.37454	-0.15779	-0.94657	-0.11087999999999999	0.50048	0.14282999999999998	-0.15989	0.19602999999999998	-0.49783	0.025518	-0.79769	-0.08594700000000001	0.38735	-0.45496000000000003	0.053776	-1.2207	-0.24941	0.46966	0.064712	-0.17386	0.33402	-0.21622	-0.48457	0.59742	-0.10765999999999999	0.65695	-0.17755	0.3302	-0.13118	0.030335	-0.30812	0.50827	0.16694	0.16791	-0.17884	-0.30177	0.17705	0.5784699999999999	0.47157	-0.29686999999999997	0.6360899999999999	-0.021502	0.7515	0.00022343	-0.006367800000000001	-0.34936	0.1174	-0.072938	-0.63347	0.67862	0.38792	0.022918	-0.21921999999999997	-0.32659	-0.30568	0.16513	-0.093526	0.0017929999999999999	-0.094546	0.18987	-0.36143000000000003	1.0164	0.10722999999999999	0.026000000000000002	0.075446	-0.53776	-0.45642	-0.22955	0.025452000000000002	-0.045493	-0.21993000000000001	0.10085	0.13932	0.7371300000000001	0.30324	-0.13862	-0.06829299999999999	0.3417	-0.25997	-0.16549	-0.32995	-0.04459	0.9829200000000001	-0.4521	-0.26932	-0.25211999999999996	-0.5081	-0.12829000000000002	-0.56908	-0.72288	-0.04531	0.85346	0.34038	-0.64867	-0.2517	0.23105	-0.9660700000000001	-0.26535	0.16359	0.017978	0.074541	0.10008	0.64989
ZJL117	0.39878	-0.5906600000000001	-0.36968	-0.20133	-0.36414	-0.43431000000000003	0.30975	-0.30361	-0.30156	0.3225	-0.36255	0.56968	-0.05279	-0.010573	-0.0072771	0.007098100000000001	0.34307	0.026812	0.15120999999999998	-0.35708	-0.028367000000000003	0.38526	0.17021	0.13133	0.12040999999999999	-0.07051900000000001	0.37116	0.3112	-0.33608000000000005	-0.84736	-0.0020999	0.11134000000000001	0.45893999999999996	-0.17779	-0.078625	-0.20742	-0.2108	-0.058107000000000006	-0.30395	-0.50242	-0.42298	0.63603	0.0033223	-0.1637	0.30080999999999997	-0.2664	0.36315	-0.32786	-0.4164	-0.11755	0.08418400000000001	-0.65228	-0.06324400000000001	0.32105	0.22885999999999998	-0.35491999999999996	0.089724	-0.58391	-0.65982	0.34124	0.26968000000000003	0.69725	-0.0094178	0.56967	0.40155	0.33564	-0.46563999999999994	-0.41991999999999996	0.050245	-0.56447	-0.094181	0.24155	0.29583000000000004	-0.10559	0.35418	0.29357	-0.026974	-0.47243999999999997	0.041329000000000005	0.50635	-0.13005	0.8530700000000001	0.81034	-0.15554	0.27996	-0.13947	0.28504	0.058125	0.11275999999999999	0.17689000000000002	0.85539	0.04303	0.259	0.26092	0.19938	-0.15762	-0.18335	0.32613000000000003	0.3064	0.31843	0.40348	0.49842	0.30414	0.67381	-0.31665	0.080236	0.49525	0.35269	-0.80556	-0.52889	0.30144	0.86215	0.21008000000000002	-0.35239000000000004	0.13467	-0.058824	-0.27096	-0.29296	-0.53877	-0.024326	-0.12732000000000002	-0.42138000000000003	-0.062403999999999994	-0.42686	-0.042429	-0.82883	0.43423	0.094046	0.49073	-0.7732100000000001	0.57487	-0.42066000000000003	0.58278	0.75069	-0.40769	0.39744	-0.21852	0.033082	0.030025	-0.12114000000000001	-0.34154	-0.050980000000000004	-0.19207	1.0203	0.32079	-0.22275	-0.12503	0.19333	-0.70087	0.98925	0.70082	0.5489999999999999	0.40021	-0.07736	-0.18133	-0.43038999999999994	0.38235	0.3143	0.9978899999999999	-0.34096	-0.2744	-0.19935999999999998	-0.13598	-0.10017000000000001	0.19319	-0.030289	-0.39882	0.41784	0.010822	-0.25137	-0.59672	0.20768000000000003	0.1459	0.18195	-0.28926	-0.8126	-0.19927	0.32487	-0.079788	-0.662	0.5959	0.43622	-0.010695999999999999	-0.040088	0.13201	-0.24141999999999997	0.043729000000000004	0.36003	0.13775	0.002133	0.1503	-0.21106999999999998	-0.43548000000000003	-0.428	0.36856	0.012977	-0.34593	0.34895	0.085971	-0.16480999999999998	0.05297999999999999	-1.0425	0.46045	-0.17265999999999998	0.17677	-0.034054	0.17594	-0.27045	0.16088	-0.42196000000000006	-0.22963000000000003	-0.8781100000000001	-0.70406	0.09908	-0.26458000000000004	-0.044436	0.66199	-0.028223	-0.4847	0.00080887	0.81716	0.20357	0.6331	0.00054937	0.53179	-0.07836699999999999	0.057426	-0.27716999999999997	-0.12315	-0.1113	0.19989	-0.48911000000000004	0.10039	0.054583000000000007	0.72	0.054545	0.2524	-0.68295	-0.38197	0.24276999999999999	0.042372	0.19143	0.18833	-0.18475	0.039041	-0.31215	0.1681	-0.94878	0.22671	-0.048770999999999995	-0.039157	-0.036798000000000004	0.89349	-0.33133	-0.0069806	-0.82363	-0.8365299999999999	0.29544000000000004	0.37822	-0.06276699999999999	-0.026976	-0.28197	0.80367	0.36428	0.087574	-0.40118000000000004	0.45502	-0.45298	-0.37644	-0.15338	-0.23312	-0.18717999999999999	-0.39899999999999997	-0.30639	0.51043	-0.037065	-0.89776	0.11840999999999999	-0.2612	-0.58823	-0.14787	-0.24314000000000002	0.82709	0.014622	-0.68081	0.7343	0.056877	0.32441	0.16235	-0.17772000000000002	0.96067	0.33065	-0.39784	0.51405	-0.39809	0.063803	-0.0010815	0.078198	0.26557	0.45228
ZJL118	0.21789	-0.36199000000000003	0.33075	-0.26921	0.049593	0.13904	-0.064887	0.45296000000000003	-0.10380999999999999	-1.0042	-0.015633	0.5053	0.84095	-0.2595	0.48702	0.57905	-0.0078598	0.013266	0.32114000000000004	-0.90105	0.36504000000000003	0.02309	-0.21666	-0.008719	0.66876	-0.54373	-0.54538	0.6839	0.20811	0.27716	0.68418	0.67645	-0.8530700000000001	0.32623	-0.18889	0.25034	-0.15150999999999998	-0.034824	-0.13725	0.12038	-0.34820999999999996	0.14672000000000002	0.12834	-0.33728	0.064836	0.036375	0.5642199999999999	-0.13443	-0.043948	-0.1863	0.32258000000000003	-0.092363	0.060513	-0.13672	-0.35974	-0.30975	0.09449500000000001	0.31947	-0.006343	0.63547	0.00022851	0.052598	0.39281	0.36353	0.35161	0.85413	0.10559	0.079788	-0.5694899999999999	-0.13149	0.63543	0.48231	0.42562	0.2748	-0.024518	0.47085	-0.18581	-0.40613	0.46033999999999997	0.051555	0.029146	0.9216700000000001	-0.11029000000000001	0.21933000000000002	0.27134	-0.43528999999999995	-0.091521	-0.08920800000000001	-0.6411100000000001	-0.019309	0.36665	0.68737	-0.14847	-0.14121	-0.23978000000000002	0.16996	0.29559	0.044108	-0.035989	-0.80466	0.18353	0.48408999999999996	-0.35354	0.027837	-0.021655	-0.15069000000000002	-0.32054	0.44128999999999996	-0.21386	0.03816	0.30101	-0.41691999999999996	0.9576	0.093078	-0.23560999999999999	0.10605999999999999	-0.60401	-0.078569	0.31578	0.45002	0.22078000000000003	0.34271999999999997	0.36701	0.016513	-0.012731000000000001	0.010881	-0.008080500000000001	-0.0049012	-0.37296	-0.41013999999999995	0.13385	-0.20368	0.58863	0.66727	0.064874	1.0017	0.50678	-0.10424000000000001	-0.0085778	0.20147	0.13545	0.50292	-0.35475999999999996	0.35236	0.19884000000000002	0.27638	0.015422	-0.022141	0.3426	-0.20363	-0.25685	0.33769	0.43182	-0.45848999999999995	0.40606	-0.13086	-0.34421999999999997	-0.44196	-0.21958000000000003	0.017192	0.14211	-0.16810999999999998	0.035813	0.13416	-0.05051	0.49988999999999995	0.33037	-0.23026999999999997	-0.28397	-0.0070688999999999995	0.055089	0.046669999999999996	-0.35341999999999996	0.26069000000000003	0.41663999999999995	-0.13451	0.57435	0.16122999999999998	0.32164	-0.37611999999999995	0.49155	0.17709	-0.08574	0.8638299999999999	-1.0190000000000001	-0.48089	0.11350999999999999	0.51567	-0.25316	0.12065999999999999	0.099422	-0.090242	-0.014172	-0.16723	-0.26985	-0.10932	-0.47745	-0.27169	0.093011	0.41875	0.23240999999999998	0.36828	-0.31978	0.056371000000000004	-0.09048099999999999	0.5232100000000001	-0.07059299999999999	0.17269	0.31267	0.12865	0.15567999999999999	0.19602	0.5274300000000001	-0.3716	0.082325	0.32281	0.66096	0.11367000000000001	-0.28755	-0.31718	-0.38345999999999997	0.4787	-0.47012	0.70122	-0.44433999999999996	-0.24741	-0.46686000000000005	-0.10314000000000001	-0.14178	-0.02068	-0.11567000000000001	-0.19249000000000002	-0.022499	-0.65869	-0.46681999999999996	0.35111	-0.34619	0.009542	0.11634000000000001	-0.41225	-0.31933	0.10254	-0.33148	-0.14553	0.031620999999999996	-0.46678000000000003	-0.40756	-0.20189000000000001	0.26934	0.66371	0.12069	0.51679	-0.43646999999999997	-0.093113	-0.60673	0.19044	-0.08341599999999999	-0.6711600000000001	0.1957	-0.57598	0.099824	-0.016152	0.78257	-0.061991	0.21004	0.11169000000000001	0.14665999999999998	0.027381	-0.42653	0.49401000000000006	-0.0013789000000000002	-0.085479	-0.00078236	0.1849	0.15735	-0.19813	0.20226	0.38049	-0.07082100000000001	0.3737	-0.083898	0.037243	-0.4304	-0.11354000000000002	0.11030999999999999	-0.25855	-0.21813000000000002	-0.53273	-0.054321	0.18999000000000002	0.39275	0.08869400000000001	-0.13208	0.09121599999999999	0.36522	0.54085	-0.24573000000000003	0.17720999999999998	-0.40669	-0.051365
ZJL119	0.2263	-0.28943	0.5158699999999999	-0.17436	-0.088725	0.11223	0.19752999999999998	0.1016	-0.20695999999999998	1.34	0.3216	0.08483500000000001	0.34803	0.067289	0.14665999999999998	0.005724100000000001	0.013346	-0.19355999999999998	-0.3523	0.025175	0.0023195	0.36239	0.31306999999999996	0.13677	0.11565	-0.34199	-0.23515999999999998	-0.15473	-0.36234	0.7442	-0.21254	0.065983	0.32283	0.47202	0.1043	0.19225	0.13787	0.43141	0.5648	0.084758	0.032147	0.077948	-0.31623	-0.64326	-0.53278	0.0089669	-0.22403	-0.70082	0.37539	0.23399999999999999	-0.31166	0.22689	0.20526	-0.25172	-0.39799	-0.39246	0.25601	0.70433	-0.32904	0.29215	0.34608	-0.31101999999999996	0.096713	0.12868	-0.081833	-0.14232999999999998	0.060916	0.067471	-0.20909	-0.14157	-0.7618	0.37705	-0.62713	0.021539	-0.18712	-0.014302	0.25409	-0.12124000000000001	0.18772	0.47381999999999996	-0.10629000000000001	-0.32193	0.030211000000000002	-0.22499	0.73757	-0.5826399999999999	-0.13919	-0.45918000000000003	0.56928	0.6129600000000001	0.40756	-0.31355	0.57617	0.33463000000000004	-0.38519000000000003	-0.25209000000000004	0.38299	-0.081584	-0.26875	0.38585	0.1875	1.0761	0.35188	0.066286	-0.24594000000000002	-0.044313	-0.32386	-0.082523	-0.59124	-0.2609	0.16751	0.025188	-0.016131	0.52589	-0.27338	-0.47123000000000004	-0.43421000000000004	0.051474	-0.51717	0.50763	0.036463999999999996	-0.1142	0.69521	0.3254	0.7225	-0.31604	-0.31076	-0.15880999999999998	-0.12516	-0.52247	0.36255	-0.19304000000000002	0.16299	-0.12220999999999999	-0.45201	0.095586	-0.028255000000000002	-0.12976	-0.031163999999999997	-0.07169299999999999	-0.10474000000000001	-0.83039	0.5101899999999999	-0.49609	-0.034906	0.42283999999999994	0.074759	-0.48831	0.050297	-0.12243	-1.1804	0.013309	0.52785	0.1782	-0.62173	0.23028	0.11069000000000001	-0.44398000000000004	0.39283	0.6219	-0.10568	0.20686999999999997	-0.3964	-0.43141999999999997	-0.3739	0.22539	-0.23276999999999998	0.35198	0.26745	-0.43572	0.081209	0.33251	0.6906899999999999	0.004142100000000001	0.07752300000000001	-0.24574000000000001	-0.26992	0.17435	-0.43775	-0.9510200000000001	-0.69947	-0.22626	0.30978	0.1047	0.14005	-0.057511	0.2836	-0.43262	0.084014	-0.13596	0.27675	-0.42536	-0.21161999999999997	0.1575	-0.064445	0.17372	-0.39411999999999997	0.13674	0.48521000000000003	-0.12512	-0.65799	0.06252200000000001	0.33809	0.8753799999999999	-0.28484	-0.3807	0.27881999999999996	0.048806	-0.4927	0.13954	-0.63564	-0.076396	0.48186	-0.53459	-0.7650899999999999	0.05271699999999999	0.017795	-0.47631	-0.35475	-0.09704	-0.19438	-0.3942	-0.53942	-0.095059	0.11607999999999999	-0.33615	-0.057247	-0.044702	0.3727	0.3787	0.16744	0.16527999999999998	0.30793000000000004	-0.15629	0.3241	-0.17321	0.021707	-0.49218	-0.052563	-0.28246	0.10918	-0.13947	0.11753	-0.14354	-0.26266	0.22773000000000002	-0.42945	0.34597	0.5120600000000001	0.24539	-0.1117	-0.52964	-0.23634000000000002	-0.40283	-0.051462	-0.10099	0.0065934	0.08359	0.74115	0.24631	0.37309000000000003	0.47718999999999995	0.18319000000000002	-0.21559	-0.18665	0.13434000000000001	-0.11245999999999999	-0.0014561	0.56024	-0.34508	-0.44785	-0.093263	-0.09511	0.34968	0.3636	0.038791	0.2524	-0.012166	-0.22418000000000002	0.20918	-0.10231	-0.17092000000000002	-0.5755	-0.062946	-0.027429000000000002	-0.04662	0.1832	0.0096455	-0.8699	0.20651	0.5423100000000001	0.31817	-0.20242000000000002	-0.34855	-0.10405999999999999	-0.59926	-0.0010789	0.11780999999999998	-0.096198	-0.47572
ZJL12	0.23565999999999998	0.30683	0.18506	0.26824000000000003	-0.10559	-0.21452	-0.033320999999999996	0.69897	0.013624	-0.08472	-0.09541000000000001	-0.42636999999999997	0.002869	0.25019	-0.3293	1.0197	-0.24131	0.26024	-0.15994	-0.00093871	-0.056986	0.29803	-0.19551	0.27588	-0.61862	-0.13089	-0.35591999999999996	-0.29622	0.0026406	-0.049423	-0.012275	-0.33681	0.23746	-0.055008	0.13178	0.6706300000000001	-0.19305	0.49353	0.045731	-0.7158399999999999	-0.8347600000000001	0.090008	0.49656999999999996	-0.19466	-0.21574000000000002	0.21025	0.38269000000000003	0.12565	-0.1284	-0.32043	-0.096192	0.0023815	0.47788	0.19425	-0.37216	-0.14029	0.11216	-0.21549000000000001	0.0050504	0.14869000000000002	-0.082113	-0.031083	0.33466	-0.75442	-0.089556	-0.25861	-0.20645	0.48439	0.13695	0.5404399999999999	-0.13682	0.5010600000000001	-0.68328	0.12308	-0.58321	-0.15979000000000002	0.13446	0.34595	1.01	-0.18703	-0.7793399999999999	0.55266	0.9857600000000001	-0.57325	0.7509999999999999	-0.020551	0.25889	0.24372	-0.21461999999999998	0.2847	0.54318	0.001334	-0.5072300000000001	0.8580700000000001	0.07269500000000001	0.47576999999999997	-0.36203	-0.29599000000000003	-0.9337799999999999	0.8830100000000001	0.67892	-0.18878	-0.18721	0.045087999999999996	-0.13824	-0.17426	-0.14907	-0.16423	-0.25506	0.77031	-0.5846899999999999	-0.18804	-0.8659600000000001	-0.22791999999999998	0.046404	-0.45943	-0.09304	0.49037	-0.19595	-0.49137	0.11363	-0.07936599999999999	-0.37601	-0.07756	0.16860999999999998	0.10614000000000001	0.16376	0.032123	0.17887	-0.63344	0.26228	0.14448	-0.13344	0.25156	0.59208	-0.31795	0.21375	-0.63958	-0.091892	0.31692	0.94637	-0.24175	-0.5260100000000001	-0.15685	-0.29475	-0.17595	0.060836	-0.13773	-0.214	0.58612	-0.41771	0.53737	-0.22696	0.10378	0.07173099999999999	-0.40545	-0.28663	-0.19015	0.10601	-0.036052999999999995	0.54951	0.44454	0.64947	0.26889	0.1408	0.36613	0.16802999999999998	0.49437	-0.12795	-0.26513000000000003	0.042901	0.40901	0.51985	-0.024	0.30391999999999997	-0.30034	0.24999000000000002	0.051866999999999996	-0.016233	-0.62316	-0.74144	0.10692	0.32629	-0.6756300000000001	-0.4104	-0.38745	-0.14432999999999999	-0.11160999999999999	0.072252	0.20188	0.20718000000000003	0.38447	-0.09122899999999999	-0.43428999999999995	0.028386	0.31704	-0.016986	-0.072211	0.05135	-0.26576	1.3442	0.09694	0.020857	-0.39866999999999997	0.49368999999999996	0.87003	0.58124	0.027854000000000004	0.1712	0.48968	-0.4378	-0.17139000000000001	0.19627999999999998	-0.70726	0.04811	-0.093416	-0.0043419	-0.0097483	-0.66814	-0.22386999999999999	-0.19129000000000002	0.09605	-0.28352	-0.53371	-0.45776999999999995	-0.47586999999999996	0.75385	-0.29169	0.4274	0.037247	-0.0093659	-0.17234000000000002	-0.17164000000000001	-0.20781	0.20968	0.36061	0.48456000000000005	-0.47268999999999994	-0.39134	-0.57802	-0.019653999999999998	-0.25378	-0.041542	-0.068892	-0.43725	-1.0151	-0.28723000000000004	0.058151999999999995	0.0033626999999999997	-0.8155399999999999	-0.09764099999999999	0.16502	0.30609000000000003	-0.28125	0.31553000000000003	-0.50061	-0.09861	-0.009590600000000001	0.013890000000000001	-0.17454	0.272	0.058247	0.20531999999999997	0.58229	-0.27931	0.13526	-0.06892999999999999	-0.10627	-0.59926	0.49651000000000006	-0.090906	-0.5050899999999999	0.36377	0.12861	0.22487	0.35872	-0.21511999999999998	0.18902	-0.60132	-0.69175	-0.39646	0.38589	-0.37813	-0.25296	-0.7893600000000001	0.049666	0.36305	-0.30501999999999996	-0.11767000000000001	-0.23521	-0.29919	0.033061	0.0032512	0.36359	-0.7844300000000001	-0.7872100000000001	0.09025	0.14912999999999998	-0.23558	-0.014019
ZJL120	-0.44696	-0.13147999999999999	0.11385	-0.12999000000000002	-0.8326	0.07509400000000001	-0.10979000000000001	0.6671199999999999	-0.21197	-0.9978600000000001	-0.36439	0.44653999999999994	-0.58819	0.15459	-0.38645	0.13782	0.2305	-0.62407	-0.40558	-0.24666	0.16921	-0.050882	0.1409	-0.047303	0.083937	-0.13592	0.0099734	0.13618	0.021102000000000003	0.17733	0.0009538	-0.22565	-0.053064	0.049517	-0.38294	0.60341	0.13865	-0.20549	-0.24600000000000002	0.35002	0.22598000000000001	-0.72519	0.16	-0.25841	-0.28346	0.06379800000000001	-0.24531	-0.20104	0.0057438	-0.82788	-0.52457	-0.52271	0.019063999999999998	0.45951000000000003	0.15345	-0.66786	-0.25133	-0.25906999999999997	0.20378	-0.11804	0.03174	-0.37771	-0.095413	-0.22077	-0.60755	-0.42499	-0.074795	-0.15717	0.0015048	0.67198	0.35375	0.0066464	-0.35107	0.3245	-0.37824	0.78966	0.1058	0.1443	-0.0035385	0.23718000000000003	0.20489000000000002	0.31487	-0.26954	-0.10572000000000001	0.3092	0.23536999999999997	0.1322	-0.34212	-0.25686	0.44113	-0.39926999999999996	0.12814	-0.14347000000000001	-0.0069801	-0.35062	0.19771	0.039735	0.034673	0.34069	-0.1396	0.42823999999999995	0.64772	-0.20344	0.25005	-0.19579000000000002	0.38054	0.1661	0.43849	-0.29971	0.17912	0.08659700000000001	0.1902	0.047097	-0.0192	-0.5884	0.34085	0.07578700000000001	0.021461	0.11413	-0.14056	0.55642	0.7849	0.8557299999999999	0.24564	-0.56689	-0.044321	0.41438	0.046998000000000005	0.069469	-0.011989	-0.23874	-0.42385	-0.10419	0.041772000000000004	0.22703	0.34245	0.31096999999999997	-0.48962	0.49749	0.12550999999999998	0.22451	0.15085	-0.41058	0.22882	-0.12428	0.34956	-0.33087	0.25611999999999996	0.68387	0.37164	-0.11634000000000001	-0.3453	0.40328	-0.45332	0.26911	-0.6531100000000001	-0.28378000000000003	-0.5543899999999999	0.27625	0.025897000000000003	-0.14937	-0.42988000000000004	-0.34569	-0.092485	0.53838	-0.33546	-0.010554000000000001	0.9587899999999999	-0.21895	0.3414	0.2585	-0.21875999999999998	-0.14712	0.24968	-0.087888	-0.39297	0.60478	0.15554	0.13452	-0.00089511	-0.18007	0.0015192	0.011401	-0.095073	0.039976	0.26273	0.42261000000000004	0.5411600000000001	-0.070771	0.43928999999999996	0.1384	0.46521999999999997	0.22	-0.19105999999999998	0.11377000000000001	-0.09449	-0.58859	0.1019	-0.33625	-0.32361	0.33301	0.35175	0.7142	0.05525599999999999	0.8452799999999999	-0.077773	0.5302600000000001	0.068135	-0.11416	0.16942000000000002	-0.017909	-0.17105	-0.33237	0.051799	0.11517000000000001	0.03603	0.58211	0.0030218000000000003	0.015131	-0.6289100000000001	0.021759	0.38894	0.48863	0.38806999999999997	-0.12080999999999999	-0.017024	-0.053023	0.027326	0.21122	-0.42241999999999996	0.6603899999999999	0.47047	-0.08061499999999999	-0.11407	0.032612	-0.37976	0.32072	-0.33613000000000004	-0.23199999999999998	0.64198	0.36232	0.20082	-0.025147	0.090891	0.009105799999999999	0.024054	0.054524	-0.14515	0.20357999999999998	-0.54855	0.28346	-0.022603	0.19949	-0.42083999999999994	0.23934	-0.12929000000000002	-0.2487	0.19927999999999998	-0.1959	-0.5022399999999999	-0.62624	0.10496	0.7166	0.13080999999999998	-0.7238100000000001	-0.14601	-0.35622	0.13551	-0.293	-0.086013	-0.058249	-0.098992	0.26014	-0.15286	-0.6025699999999999	0.50955	-1.7958	0.29086	0.38356999999999997	0.060490999999999996	0.5140600000000001	-0.2698	0.21219000000000002	0.27209	0.07625900000000001	0.4719	-0.60628	0.33359	-0.020419	-0.32661	0.5574399999999999	0.020408000000000003	-1.0347	0.9827299999999999	-0.30619	0.19776	0.50144	-0.12177	0.7814300000000001	0.10438
ZJL121	0.041488	-0.012031	-0.75962	0.084367	-0.037007	-0.23484000000000002	-0.12425	-0.42771000000000003	-0.22821999999999998	0.26214	0.067732	0.51052	0.065967	0.36896	-0.22386999999999999	0.1686	0.34820999999999996	0.038627	-0.14114000000000002	0.06683099999999999	-0.24031	0.13940999999999998	-0.48808999999999997	-0.3001	-0.29609	-0.16829000000000002	0.53072	0.51148	-0.12284	0.37049	-0.55835	-0.9020100000000001	-0.17978	-0.25014000000000003	0.67979	0.015218	-0.46816	0.17543	0.61866	0.61715	-0.16045	-0.24403000000000002	0.13679000000000002	-0.36488000000000004	-0.017843	-0.29586999999999997	0.072029	-0.24059	-0.23160999999999998	-0.14295	-0.41903	-0.18186	0.24827	-0.20182999999999998	0.48299	-0.34611	-0.24176	-0.9992200000000001	0.035851	0.50525	-0.21284	-0.3964	-0.59559	0.18615	-0.18918	0.45693999999999996	0.39899999999999997	-0.21316999999999997	0.17172	-0.042831	0.26928	0.4904	-0.28398	-0.2516	0.49249	-0.02628	-0.03285	-0.079204	-0.52344	-0.035965	-0.36156	0.10632	0.058309	0.035805000000000003	0.16989	0.27889	0.26587	0.17653	-0.42158	-0.065819	-0.18400999999999998	0.040721	0.25618	-0.090061	0.1355	0.33908	0.24993	0.35777	-0.69417	0.51212	0.25227	0.52205	-0.16215	-0.10991	-0.31012	0.27329000000000003	0.36195	0.090799	-0.28752	-0.27233	-0.29658	0.84252	-0.085698	-0.07566200000000001	-0.07604	-0.27976	0.26223	0.33936	0.26761999999999997	-0.17515999999999998	0.34575	0.16024000000000002	0.8208700000000001	-0.09046	0.31322	0.18195999999999998	0.38633	-0.081453	0.048001	0.37251	0.20567	-0.16734000000000002	-0.22315	-0.2481	-0.20092000000000002	-0.4466	-0.47196000000000005	0.21006999999999998	0.19142	0.21641999999999997	0.18859	0.49226000000000003	-0.045374	-0.021453	0.49956000000000006	0.03665	-0.15936	0.47083	0.7408100000000001	0.0049481	-0.062274	0.10887000000000001	0.14212	0.24145	-0.067548	0.077896	0.38374	-0.5314300000000001	-0.33038	0.22724	-0.15442	-0.085471	-0.15608	-0.34575	0.32891	-0.23731999999999998	-0.16196	0.39004	0.08057	-0.5324399999999999	-0.30143000000000003	0.2487	-0.24178000000000002	-0.11108	-0.19011	-0.77703	-0.53018	0.036378	0.20686999999999997	-0.24405	0.098072	-0.24821	0.5675	-0.33014	0.25269	-0.44588999999999995	0.58467	0.6592	-0.28712	-0.17244	-0.096202	-0.19702	-0.19910999999999998	0.22279000000000002	-0.1553	0.16569	-0.24505	-0.23920999999999998	-0.15664	0.021355000000000002	0.051909000000000004	-0.0089667	0.39058000000000004	0.53236	0.12942	0.056608000000000006	0.25690999999999997	0.35412	-0.41847	0.061390999999999994	0.26269000000000003	-0.094723	-0.5704100000000001	0.31669	0.0027570999999999997	-0.10765	-0.22294	-0.86198	0.31001999999999996	-0.34205	-0.3567	0.21570999999999999	0.22674	0.71814	-0.07329	-0.15616	-0.13924	0.020437999999999998	0.060136	-0.17794000000000001	0.044208	-0.23299	0.078993	-0.17576	0.44814	-0.12280999999999999	0.50178	-0.12004000000000001	-0.15115	-0.028162	0.6099899999999999	0.20945999999999998	-0.88445	0.15332	0.16185	0.16704000000000002	0.59318	-0.54967	0.65552	-0.41422	-0.37168	-0.16666	0.0028234	-0.29568	-0.15282	-0.49132	-0.23184000000000002	0.6176	0.31042	-0.38724000000000003	0.4011	-0.36833	-0.018716	-0.31234	-0.71396	0.19796	-0.51153	0.22008000000000003	-0.51466	-0.10205	0.11222	-0.15733	0.079729	0.07996900000000001	-0.21391	0.5532600000000001	0.71402	-0.14167000000000002	-0.5059600000000001	-0.006713899999999999	0.37631	-0.029994999999999997	0.263	-0.042526	-0.095065	0.16527999999999998	0.24495999999999998	0.19197999999999998	-0.7012	-0.65999	-0.065925	-0.21528000000000003	-0.065992	0.8650399999999999	-0.5021899999999999	-0.50336	-0.042017	0.56201	0.96145	0.07873
ZJL122	0.16976	-0.49576000000000003	-0.4419	0.27587	0.0077253	0.087989	-0.07349800000000001	-0.8700600000000001	-0.7026600000000001	-0.5169	0.45516	-0.38958000000000004	-0.65182	-0.3711	-0.18673	-0.22453	1.3101	-0.1176	0.46725	-0.26643	1.3008	-0.20331	0.40699	-0.36044	-0.28626	0.5845	0.47638	0.48686999999999997	0.048979	-0.36988000000000004	0.12287999999999999	0.36748000000000003	0.63308	0.3968	-0.53889	-0.03505	0.14087	-0.031577999999999995	-0.23185999999999998	-0.05991799999999999	0.49155	-0.048538	0.04344	-0.3866	0.65774	0.48257	0.73957	-0.27063000000000004	0.26031	0.40485	0.25221	0.6290399999999999	0.088431	0.50322	0.41555	0.55628	-0.56382	0.5463399999999999	-0.68687	0.11247	-0.27826999999999996	0.25721	-0.048895	-0.43937	-0.065537	-0.48418999999999995	0.12280999999999999	-0.8066800000000001	-0.14837	-0.20356	-0.8629899999999999	-0.21619000000000002	0.61858	0.4321	-0.54428	-0.10105	0.7988	-0.53376	0.34529	-0.35864	0.31177	0.23445	0.3424	-0.20303	-0.077137	-0.74638	0.85246	0.61238	-0.66041	-0.061858	-0.11245999999999999	0.11449000000000001	-0.024007	-0.15678	0.5887100000000001	-0.2658	0.10201	-1.0808	-0.24565	-0.6773	-0.12276	-0.037409	0.5260199999999999	0.44104	-0.65805	0.11481	0.42826000000000003	0.75874	0.21573	0.35370999999999997	0.39526	0.060434	0.27910999999999997	-0.49649	0.030643	0.8766299999999999	0.39437	-0.36121	-0.045341	-0.25006	-0.32176	-0.33823000000000003	-0.32578	-0.20083	-0.22403	0.045249	0.51135	0.76543	-0.18479	-0.068863	0.5211600000000001	-0.35055	0.15788	0.9170200000000001	0.15747	-0.57748	0.61702	-0.22526999999999997	0.020546000000000002	0.32572	0.16598	0.58109	0.92311	0.0099698	-0.24986	-0.036036	0.5371100000000001	0.41086000000000006	-0.53265	0.54566	0.7474	0.6289600000000001	-0.12728	-0.5774199999999999	0.6816300000000001	0.23614000000000002	-0.25723	0.98751	0.11937	0.1265	0.25226	-0.24394000000000002	0.35813	-0.16646	0.38639	0.62247	-0.25183	0.040867	-0.0069319	0.16567	1.0633	0.5539999999999999	-0.5512100000000001	-0.48473	0.56296	0.089673	0.34188	0.10678	-0.012713	-0.29998	-0.03375	-0.078773	-0.49698000000000003	-0.75535	-0.37482	-0.63143	-1.0954	-0.14367	0.26739	0.98511	0.4646	0.27818000000000004	0.30494	0.29034	-0.4344	-0.44569	-0.23178	-0.31021	0.18281	-0.18085	0.9583299999999999	-0.14744000000000002	-0.068844	-0.8329700000000001	0.49988	-0.38064000000000003	-0.46103	0.15927	-0.53172	0.66704	0.025027	-0.32287	0.56142	-0.43673	0.34399	-0.16646	0.6241899999999999	0.30758	-0.47048999999999996	-0.8885700000000001	1.1697	0.29879	0.022791	-0.01427	-0.14699	-0.45521000000000006	0.1276	0.10047	0.37769	-0.36966	0.29975	0.35381	-0.21758000000000002	-0.0051769	0.22175999999999998	0.2603	0.032428	0.55813	-0.31365	-0.1058	0.26808000000000004	0.58311	-0.37031	0.26521999999999996	0.0015952	0.46696000000000004	0.19008	-0.5843	0.43709	-0.47562	-0.067608	-0.25422	0.036456	0.48938000000000004	0.50831	-0.82721	-0.11155999999999999	-0.2634	0.040407	-0.37245	-0.09939400000000001	0.23387	0.35888000000000003	0.28874	0.040866	-0.44	-0.33096	-0.41113	-0.9410200000000001	-0.48708999999999997	-0.6100399999999999	0.11222	-0.70076	-0.00052918	0.41511000000000003	0.42196000000000006	-0.79593	-0.18161	-0.76749	0.61833	-0.41825	-0.048671	0.30363	-0.23947	-0.047508	0.70287	0.22161	0.58796	0.17929	0.392	0.80782	-0.26755999999999996	-0.1069	-0.74148	0.14082999999999998	0.41208	0.49951999999999996	-0.085774	-0.09816	0.35384
ZJL123	0.37637	0.36164	-0.38082	0.12822999999999998	-0.029077	-0.024241	0.2214	0.05851900000000001	0.49137	-0.43273999999999996	-0.17945999999999998	-0.13973	0.047693	0.16971	-0.28486999999999996	-0.13255	-0.28244	0.35456	0.043628	-0.40376	0.15417	0.16915	0.31117	0.24136	-0.096773	-0.27865	-0.25640999999999997	-0.49105	0.050079000000000005	0.16552	0.38611	-0.22488000000000002	-0.44706	0.13494	-0.27031	0.027018	-0.38769000000000003	0.1733	-0.37237	-0.2171	0.05140700000000001	0.077066	0.14783	-0.31456999999999996	0.15885	-0.26754	-0.25742	-0.49173	-0.066911	-0.13280999999999998	0.3503	0.54478	0.30309	-0.524	-0.37645	-0.037644	-0.90541	0.13201	0.43604	-0.1762	0.35879	-0.17514000000000002	-0.27126	0.39426	0.75498	-0.3449	0.13494	-0.13130999999999998	0.6642	-0.43281000000000003	-0.29723	0.36689	0.08579099999999999	0.6575300000000001	-0.51375	-0.10947	-0.29175999999999996	-0.5886399999999999	-0.3551	0.10015	-0.52581	-0.065454	0.88775	-0.15604	0.00022122	-0.25214000000000003	-0.13832	-0.15502	0.10212	0.072223	0.07632699999999999	0.35745	-0.44278999999999996	-0.48763	0.31726	0.26250999999999997	-0.40694	-0.68186	0.2247	-0.6490199999999999	0.21397	0.067164	-0.32834	-0.23781999999999998	0.489	-0.75124	0.02443	-0.18588	-0.17378	-0.36982	0.27985	0.27767	-0.097776	-0.55845	-0.007563800000000001	0.17340999999999998	-0.6712	0.13434000000000001	0.042194999999999996	-0.026706999999999998	-0.14623	-0.3638	0.035135	-0.21661999999999998	0.17113	-0.012424	0.12577	0.51371	0.51073	-0.39416	1.0233	0.22266	0.57262	0.66657	0.034529000000000004	-0.020444999999999998	-0.8411799999999999	0.29705	0.27566	-0.12643	0.18145	-0.028188	-0.37596999999999997	0.2031	0.30513	0.7298399999999999	-0.074064	0.048902	-0.17085	0.27455999999999997	-0.082083	0.6029	-0.6292	-0.5211899999999999	-0.15889	-0.43864	-0.08369700000000001	-0.42203	0.6091	0.5283399999999999	-0.13713	0.47486999999999996	-0.24511999999999998	-0.24795	0.2891	0.26105	0.3836	0.10029	0.057289	0.0093718	-0.06623899999999999	0.77168	0.39421	-0.5665100000000001	0.22791999999999998	-0.23385999999999998	-0.58536	0.43518999999999997	-0.20399	-0.48925	0.70012	0.3707	0.2731	-0.10722000000000001	-0.18741	0.051374	0.6055	0.19858	0.47753	-0.026434	0.43246	-0.49495	0.083662	0.69893	0.45533999999999997	-0.14227	-0.45421000000000006	-0.039968000000000004	-0.29456	0.4001	0.46503	-0.009376700000000002	0.52908	-0.27051	-0.2311	0.71473	0.15189	-0.34373000000000004	-0.65167	0.042799000000000004	-0.21988000000000002	-0.4532	0.33037	0.48732	0.064175	0.11384000000000001	0.46876	0.20897	0.023629	-0.17726	0.036101	-0.034942	-0.17711	0.081189	-0.47231999999999996	0.23485999999999999	-0.26299	0.29463	0.23947	0.036838	0.63279	0.21886	0.81738	-0.17056	0.011683	-0.1256	-0.06702899999999999	-0.015444999999999999	-0.30487	0.28953	0.28104	-0.082639	-0.18306	0.0084387	-0.19177	-0.50956	0.14165	0.22879000000000002	0.074782	-0.11457	-0.35108	0.39968000000000004	0.33601	-0.55296	0.46248	-0.42968	0.19007000000000002	0.039162	0.088345	0.34964	0.032206	-0.30173	0.21475	0.43343000000000004	-0.21019000000000002	0.37046	-0.96614	0.090737	-0.17661	-0.10570999999999998	0.07721499999999999	-0.61426	-0.31006999999999996	0.17799	-0.65077	-0.06801499999999999	-0.37801	0.18205	-0.3356	-0.20911999999999997	0.41033000000000003	0.26115	-0.31859	0.10709	0.050621	0.23212	0.096977	-0.45563000000000003	-0.32448	0.36466	0.2122	-0.71472	-0.30103	0.095998	-0.39737	0.29291	0.86221	-0.017086	-0.25647	0.29309
ZJL124	0.23373000000000002	-0.29489	-0.14131	-0.21338000000000001	-0.3882	-0.12165	-0.61884	0.13367	0.022087	0.027795	0.43132	-0.047366000000000005	0.67799	0.13421	-0.054039	-0.30601	-0.51097	0.24293	0.25374	-0.29331999999999997	0.22735999999999998	-0.62112	0.18234	-0.041608	-0.25226	0.018601	0.007482899999999999	0.35943	0.026302	0.29508	0.31976	0.1461	0.30687	0.088639	-0.8944700000000001	0.07710399999999999	-0.2196	0.5574399999999999	0.43409	0.53877	0.29441999999999996	-0.40523000000000003	0.42803	-0.156	-0.16385	-0.19627999999999998	0.1893	-0.27739	0.50134	-0.12261	-0.51878	-0.25299	0.29254	0.047619999999999996	-0.3079	-0.04239	-0.33319	-0.38833	-0.51058	0.26305	-0.0701	-0.3337	-0.39808000000000004	-0.21454	0.11943	-0.30145	-0.38832	-0.36911	0.5853	-0.49504	-0.017346	0.3189	-0.034787	0.26855999999999997	0.15191	-0.20636999999999997	-0.30091	-0.14415	-0.48581	-0.73893	0.17495	-0.36071	-0.074653	0.06241699999999999	-0.36968	-0.017297999999999997	0.074334	0.61293	-0.38795999999999997	0.14343	-0.22880999999999999	-0.070503	0.18144000000000002	0.19826	-0.4008	0.56691	-0.032543	0.20223	0.1211	0.22855999999999999	-0.083337	0.35974	-0.56914	-0.14274	0.3825	-0.21631	-0.079735	0.12372999999999999	-0.1772	-0.41697	0.097559	0.35708	-0.64625	-0.25369	0.23346999999999998	-0.21136999999999997	0.046324000000000004	0.0073876	0.32173	-0.51374	-0.21961999999999998	-0.90712	0.40626	0.00020457	0.21022	0.0038610999999999997	-0.82304	-0.93232	-0.25068	0.017963	0.042968	0.33632	-0.21198000000000003	0.10934	-0.004811800000000001	-0.11550999999999999	-0.19295	-0.78494	0.47041000000000005	0.26864	-0.43206000000000006	0.53594	-0.20681	0.37661999999999995	-0.17790999999999998	0.26331	0.65927	-0.28857	0.084781	0.20561999999999997	-0.18117	-0.64595	-0.06450499999999999	-0.10128999999999999	0.13267	-0.11497	-0.25942	-0.39399999999999996	0.15655	0.46468999999999994	0.62892	-0.24266999999999997	-0.32289	-0.012383	0.056473	0.096965	0.25588	0.32983	0.7053	0.18828	-0.1821	0.13842000000000002	-0.13273	0.39449	0.94326	-0.78091	-0.38928	0.5743699999999999	-0.66313	0.094652	-0.053498000000000004	-0.4673	0.065412	-0.10682	-0.14542	0.39604	-0.57826	0.1653	-0.065371	0.5967399999999999	-0.14155	0.47717	0.43025	0.32261999999999996	-0.0098821	0.39791	0.58659	-0.91286	-0.080176	0.20442000000000002	-0.19763	0.29741999999999996	0.051687000000000004	0.3353	0.041678	0.026257	-0.24529	0.30516	-0.4398	-0.044216000000000005	0.25797	0.0001901	0.19293	0.19011	1.0835	-0.27249	-0.017443	-0.51878	-0.42166000000000003	-0.37851999999999997	0.060360000000000004	0.20063	0.13587	0.42512	0.39596	-0.42541	0.08431	-0.14535	-0.10101	-0.30815	0.44876000000000005	0.65087	-0.094833	0.12485	-0.006000999999999999	-0.39047	0.074244	0.26515	0.41658999999999996	-0.20057	0.37934	-0.32345999999999997	-0.51507	0.29412	0.23593000000000003	0.12515	0.064524	0.22043000000000001	-0.27787	-0.17113	-0.43293999999999994	0.22004	0.48553999999999997	0.10271	0.11745	0.64648	-0.31638	-0.37911	0.02235	-0.13952	-0.066665	-0.15389	-0.0042089	0.56409	-0.12715	-0.31703000000000003	-0.44175	-0.49333999999999995	-0.083709	-0.25090999999999997	0.19312	0.21295999999999998	-0.55255	0.014921	-0.37163	-0.4341	-0.49606999999999996	0.09819299999999999	-0.32815	-0.31189	0.054678	-0.19864	0.05635	-0.15533	0.24056	-0.055292999999999995	0.039552	0.24306	0.26065	-0.46821999999999997	-0.28697	-0.17324	-0.16865	-0.11154000000000001	0.49626000000000003	-0.15634	-0.12716	0.09952799999999999	0.47813	0.11532
